{"expert_0": {"shapes": {"model.net.0.weight": [81, 27], "model.net.0.bias": [81], "model.net.2.weight": [2, 81], "model.net.2.bias": [2]}, "weights": {"model.net.0.weight": [[0.06073290854692459, -0.005901210010051727, 0.4678192138671875, 0.20297762751579285, -0.0007058639894239604, 0.14551515877246857, 0.13676026463508606, 0.03866943344473839, 0.0668940544128418, -0.5249765515327454, -0.04302064701914787, -0.4229249656200409, 0.6070969700813293, 0.059992436319589615, 0.15125735104084015, -3.891273021697998, -0.13356485962867737, 0.7392429113388062, 0.512811541557312, 0.12249308079481125, 0.1560429334640503, -0.985755205154419, -0.026766907423734665, -0.00499809579923749, 0.24183888733386993, 0.06264139711856842, -0.2996017336845398], [-0.009559208527207375, -0.0022508539259433746, 0.0016545108519494534, 0.006010656710714102, 0.0048277126625180244, -0.0002824005205184221, 0.009433137252926826, -0.00540753360837698, 0.001630399958230555, 0.0033882504794746637, 0.009063560515642166, -0.0014967805473133922, -0.006855376996099949, -0.006317509338259697, -0.0017970721237361431, -0.015651874244213104, 0.004421112593263388, -0.0013417565496638417, 0.0046257274225354195, 0.010549222119152546, -0.0021146717481315136, -0.005245519801974297, -0.00735101941972971, -0.0015920782461762428, 0.003084404394030571, 0.002666322747245431, 0.0004764028708450496], [0.35393407940864563, 0.277534157037735, -1.3004708290100098, -2.9209964275360107, -0.2579492926597595, 0.06129217892885208, 0.10713351517915726, 0.10039617866277695, -0.054106082767248154, -1.367247462272644, -0.109992116689682, -1.0807925462722778, 0.4889678359031677, 0.11990607529878616, -0.11067996174097061, 2.6188411712646484, 0.09529250115156174, -1.188412070274353, 0.12333174049854279, 0.02167617902159691, -0.1857548952102661, 0.026061687618494034, -0.04792787879705429, -0.8077824115753174, -0.3004366159439087, -0.05631306394934654, 0.8818482160568237], [-0.23293477296829224, -0.0723053589463234, -0.9456247091293335, 1.3968093395233154, 0.0490899495780468, 0.13163259625434875, 0.022009113803505898, 0.03791012987494469, 0.12043163180351257, 0.6599730253219604, 0.06028590351343155, 0.9918347597122192, -0.2821066081523895, -0.0714149996638298, 0.6056399941444397, -0.7739199995994568, -0.029505904763936996, 1.2800819873809814, -0.11636900901794434, -0.009105698205530643, 1.3101801872253418, 0.7430782914161682, -0.03228936716914177, 1.9082814455032349, -0.2636104226112366, -0.037788257002830505, 1.5821164846420288], [0.0374208427965641, 0.03812732174992561, 0.2639704644680023, -0.4447765350341797, -0.03293870389461517, 0.8873621225357056, 0.29522523283958435, 0.08205845952033997, -0.09170063585042953, -2.6406853199005127, -0.17565545439720154, -1.1054669618606567, 1.6340084075927734, 0.36153414845466614, -0.20130963623523712, -3.553523540496826, -0.10116840153932571, -0.18064218759536743, 0.23407095670700073, 0.041241422295570374, 0.014198780991137028, -0.264822781085968, -0.006557890679687262, 0.17589439451694489, 0.014699731953442097, -0.023133203387260437, 0.3976803421974182], [-0.006546693854033947, -0.005093632265925407, -0.002513343468308449, 0.0033347837161272764, 0.005330222193151712, 0.0005410596495494246, -0.001551843830384314, -0.004014492034912109, 0.0004133121110498905, 0.007009607274085283, 0.005995187908411026, -0.00017208332428708673, -0.003855763003230095, -0.0012670193100348115, 0.0017248508520424366, -0.00862092338502407, 0.003541753627359867, 0.0003935626009479165, 0.0026485335547477007, 0.0067480080761015415, -0.0014190932270139456, -0.0062004136852920055, -0.0008989324560388923, 5.295251321513206e-05, 0.00027799131930805743, 0.006614536512643099, 0.007152908947318792], [-0.013814547099173069, -0.008896008133888245, -0.01135968416929245, 0.005866064690053463, 0.004889881704002619, -0.0003155260346829891, -0.000400395569158718, -0.007232078816741705, -0.0009833585936576128, 0.008699450641870499, 0.008830650709569454, -0.0013219228712841868, -0.003507878864184022, -0.001562905265018344, 0.0014128601178526878, -0.018111148849129677, -0.00043933678534813225, -0.0008155473042279482, 0.007643572520464659, -0.0072500077076256275, 0.0025979597121477127, -0.004930330440402031, -0.005679294466972351, -0.0016604975098744035, -0.007616120856255293, 0.008663488551974297, 0.011823434382677078], [0.4443170726299286, 0.21857017278671265, -0.22854292392730713, -2.7865376472473145, -0.2156587392091751, 0.4640626907348633, 0.04501644894480705, 0.01802850142121315, 0.36590176820755005, -0.5807102918624878, -0.056841783225536346, -0.3884826898574829, 1.2186248302459717, 0.19572415947914124, 0.1753828376531601, -0.09248118847608566, 0.01721634343266487, -0.3053845763206482, 0.19327427446842194, 0.04645588621497154, 0.16886082291603088, -1.9289973974227905, -0.04866693913936615, 0.5231495499610901, -0.08112183958292007, 0.047842927277088165, 0.25189730525016785], [0.001049531390890479, -0.0017348385881632566, 0.0006864077295176685, -9.094101551454514e-05, 0.0005376977496780455, 0.0001162228945759125, -0.0005041090189479291, 0.0010825850768014789, -8.443482511211187e-05, -0.0010221751872450113, -0.0010173475602641702, -7.311133958864957e-05, 0.0002656087453942746, -0.0015653842128813267, 0.0011116722598671913, 0.000888908514752984, -0.0004434048314578831, -0.0005160739528946579, 0.001908481353893876, 0.0022717940155416727, -0.00039281771751120687, 0.0011350371642038226, -6.435870454879478e-05, -0.0008734123548492789, -0.0017695538699626923, 0.0003811715869233012, 0.00031178840436041355], [-0.008255778811872005, -0.00559893436729908, -0.008809520862996578, 0.0019543017260730267, 0.004190086852759123, -0.0005153497331775725, -0.00040105695370584726, -0.0061131929978728294, -0.0014404675457626581, 0.006640466395765543, 0.005946374032646418, -0.001270148903131485, -0.0039044932927936316, 0.00012750300811603665, 0.003778706304728985, -0.009343800134956837, 0.0009516911231912673, -0.0003232660237699747, 0.00322418543510139, -0.005448295269161463, 0.0015550224343314767, -0.0017551095224916935, -0.0025589505676180124, -0.0004691750218626112, -0.00347475940361619, 0.010012012906372547, 0.009095821529626846], [-0.33971405029296875, -0.1615491360425949, 0.24327443540096283, 3.682504177093506, 0.22951294481754303, 0.06566832214593887, -0.39423272013664246, -0.07166831940412521, 0.2872985303401947, -4.118513584136963, -0.2199888676404953, -0.24355746805667877, 1.3011817932128906, 0.2985464334487915, 0.2472863495349884, -3.634333610534668, -0.11106067895889282, -0.07642397284507751, 0.22876986861228943, -0.012552695348858833, 0.199114128947258, 4.893284320831299, 0.14008480310440063, 0.396702378988266, -1.4961961507797241, -0.160837784409523, -0.12239964306354523], [-0.029974404722452164, 0.0729471892118454, -0.30762916803359985, -1.643704891204834, -0.13559600710868835, -0.851478636264801, 0.06271732598543167, 0.07286129891872406, -0.5225688815116882, 0.15694965422153473, 0.0035286240745335817, 0.5317760705947876, 0.24431253969669342, 0.08019624650478363, -0.4896560609340668, 2.7646732330322266, 0.0869344174861908, 0.007010312285274267, -0.6585327386856079, -0.0780973732471466, -0.37662115693092346, 0.9926179647445679, 0.036773212254047394, -0.7518391013145447, -0.22515569627285004, -0.03353099524974823, 0.07188798487186432], [0.035374715924263, -0.0838630199432373, 3.5685086250305176, 0.3304983675479889, 0.007071009371429682, -0.6625786423683167, -0.3577549457550049, -0.1439216434955597, -0.8333772420883179, 3.7146737575531006, 0.26501384377479553, -0.7283003926277161, -0.41821983456611633, -0.11073161661624908, -1.1589195728302002, -1.5138647556304932, -0.025729035958647728, -0.9766300916671753, -0.40347227454185486, -0.01550367847084999, -1.7081528902053833, -5.7407917976379395, -0.1261146515607834, -0.18443739414215088, 2.8012940883636475, 0.30741429328918457, -2.703477621078491], [-0.00714395847171545, -0.0048576099798083305, -0.0056018284521996975, 0.00042312301229685545, 0.004438248462975025, 0.00046088657109066844, -0.0015216569881886244, -0.0068992916494607925, -1.243791302840691e-05, 0.008733152411878109, 0.005255808122456074, 0.0002057916426565498, -0.00335739110596478, 0.0022328069899231195, 0.004039125517010689, -0.0027271267026662827, 0.002308930503204465, 0.0015060711884871125, 8.493055065628141e-05, -0.0015799064422026277, -0.00019979239732492715, -0.0036431525368243456, 0.0009584457729943097, 0.001666660187765956, 0.0013449133839458227, 0.009007337503135204, 0.009093170054256916], [0.0024262501392513514, -0.0012563328491523862, 0.0006876419647596776, -0.000274238467682153, 0.0004784823686350137, 0.00015098333824425936, 7.148108124965802e-05, 0.0009925956837832928, -0.00086289580212906, -0.0026277205906808376, -0.002294153207913041, 0.0003232696617487818, -0.0012596766464412212, -0.0022660831455141306, -0.0003764176508411765, 0.00044672019430436194, -0.0010354049736633897, 6.064333865651861e-05, 0.002353541785851121, 0.00152609555516392, -0.0028515842277556658, 0.00282328762114048, -0.00044580339454114437, 0.0001779978338163346, -0.0023816563189029694, -0.00017404711979907006, 0.0003766815352719277], [0.008362055756151676, 0.005445269402116537, 0.008854330517351627, -0.0035131953191012144, -0.0042099906131625175, 0.0006812674691900611, 0.0008320657652802765, 0.005389105062931776, 0.001709889154881239, -0.00631515821442008, -0.006875022314488888, 0.0016888509271666408, 0.003150802105665207, 0.0003785263979807496, -0.002724986057728529, 0.012961906380951405, -0.0008328830590471625, 0.0007931612199172378, -0.0041312905959784985, 0.004371474497020245, -0.0020925928838551044, 0.0029039084911346436, 0.004117721226066351, 0.0009592818678356707, 0.0047355224378407, -0.009529861621558666, -0.00765455886721611], [0.006322531029582024, 0.0028482216876000166, 0.0031707463786005974, -0.002915732329711318, -0.0037412240635603666, 0.0002621097955852747, -1.3034878065809608e-05, 0.003664289601147175, 0.0003290036984253675, -0.005300753749907017, -0.006104576867073774, 0.0012400158448144794, 0.0015971099492162466, 0.0007354553672485054, -0.0015535501297563314, 0.008788804523646832, -0.002444228157401085, 0.000494529667776078, -0.0018789722817018628, -0.0031694083008915186, -0.0011941567063331604, 0.004278026986867189, 0.0028905433136969805, 0.0006952444673515856, 0.00024127366486936808, -0.006609396077692509, -0.00378321367315948], [0.004060543607920408, -0.00020904293342027813, 0.0011835545301437378, -0.001547922845929861, -0.0010225491132587194, 7.75191219872795e-05, -0.001036403700709343, 0.0021885442547500134, -0.0007377848378382623, -0.003715702798217535, -0.004249210003763437, 0.0005369384889490902, 0.00017894196207635105, -0.0010276661487296224, -0.0008682488696649671, 0.004510801285505295, -0.0018576348666101694, 4.044859088025987e-05, 0.0010038354666903615, -0.0009580989135429263, -0.0020381901413202286, 0.004103352781385183, 0.0007753597456030548, 0.00016642121772747487, -0.002132585272192955, -0.0025472231209278107, -0.0009218307095579803], [-0.0020406520925462246, 0.0020841259974986315, -0.0008709521498531103, 0.0005545341409742832, -0.00040956545853987336, -2.956653042929247e-05, 0.0009953283006325364, -0.001881144940853119, 0.0004808365774806589, 0.0019657649099826813, 0.0021738207433372736, 8.160229481291026e-05, -0.0006853812374174595, 0.0018155957804992795, -0.0005661296308971941, -0.002369838999584317, 0.0009250964503735304, 0.0005457515944726765, -0.0022175260819494724, -0.0019219854148104787, 0.0006918985745869577, -0.002361443592235446, 2.5050649128388613e-05, 0.0008180169970728457, 0.002579900436103344, 0.00011533631914062425, 9.625709935789928e-05], [-0.006596805993467569, -0.003410594305023551, -0.0060912324115633965, 0.001044140080921352, 0.0036180189345031977, -0.00025864652707241476, -0.001258677220903337, -0.00563705712556839, -0.0008364030509255826, 0.006434030365198851, 0.005389459431171417, -0.0010127288987860084, -0.002539148088544607, 0.0013358049327507615, 0.0037827985361218452, -0.005159905180335045, 0.0016117688501253724, -9.545368811814114e-05, 0.000700321514159441, -0.001983822323381901, 0.0016462946077808738, -0.0023606528993695974, -0.0010900933993980289, -0.00046478124568238854, -0.00025811788509599864, 0.009070955216884613, 0.0072500561363995075], [0.00012354113277979195, -0.0006483877077698708, 4.952476592734456e-05, 0.0009608594118617475, 0.0010346481576561928, -0.0002532361540943384, 0.0008072421187534928, 0.0004587475850712508, 0.0001667733013164252, -0.00027086070622317493, 0.0008114599622786045, -0.0006291323807090521, -0.0007252242066897452, -0.00177318649366498, 0.0018798145465552807, -0.002097132382914424, 0.0005822352832183242, -0.0005681603797711432, 0.001893901964649558, 0.0033321776427328587, -0.0012495474657043815, -5.543373845284805e-05, -0.001360289752483368, -0.00045561889419332147, -0.0005228293011896312, 0.002012586919590831, -0.0008471872424706817], [0.1718294620513916, 0.1322481483221054, 2.1668453216552734, -2.4301962852478027, -0.2142643928527832, -0.3960808217525482, 0.310782790184021, 0.12831200659275055, 0.31860285997390747, -2.0971317291259766, -0.15500764548778534, 0.4654395878314972, 1.2354804277420044, 0.22549782693386078, -0.12259095162153244, 0.668732225894928, 0.034920595586299896, -0.10830441862344742, 0.12611344456672668, 0.006409746594727039, 0.028576578944921494, -0.12941178679466248, -0.02237669751048088, -0.8895458579063416, -0.3809686303138733, -0.043182529509067535, 0.5446749925613403], [0.19869393110275269, 0.15382304787635803, 0.180399090051651, -3.0933072566986084, -0.2328329235315323, 0.07741761952638626, 0.2168455868959427, 0.0797450914978981, -0.31318703293800354, 0.040968701243400574, -0.010848181322216988, -0.6409151554107666, 0.1728730946779251, 0.06675323843955994, -0.3370775282382965, 7.499760150909424, 0.20212113857269287, -0.7294201850891113, -2.221312999725342, -0.30883172154426575, 0.20253810286521912, 3.2987139225006104, 0.11786152422428131, -0.021533800289034843, -0.2994755804538727, -0.012780368328094482, -0.2383705973625183], [0.009645141661167145, -0.005300871562212706, -2.244232654571533, 0.20640988647937775, -0.008029777556657791, 0.3512413203716278, -0.3950958847999573, -0.12977613508701324, -0.03530808910727501, 3.3282294273376465, 0.23842406272888184, -0.954400897026062, -0.21332941949367523, -0.07047175616025925, -0.37479037046432495, -1.3431036472320557, -0.022490348666906357, -0.37010976672172546, -0.32214879989624023, -0.03632345050573349, -0.6267098188400269, -5.288424491882324, -0.14349636435508728, -0.815568745136261, 2.4273247718811035, 0.20556586980819702, -0.7478747367858887], [0.008000119589269161, 2.3459851945517585e-05, -0.0014273949200287461, -0.0041717165149748325, -0.001379754743538797, -0.0005449674790725112, -0.011864233762025833, 0.005156088154762983, -0.003275479655712843, -0.0030040277633816004, -0.00817208644002676, 0.00011717086454154924, 0.005841100122779608, 0.003919240552932024, 0.0006180707132443786, 0.012864494696259499, -0.00330000976100564, 4.2096984543604776e-05, -0.00039286469109356403, -0.00638997508212924, 0.00032973397173918784, 0.0058944737538695335, 0.00444070203229785, 0.0002524704614188522, -0.005516576115041971, -0.00045011445763520896, 0.0001535890478407964], [-0.00506131025031209, -0.0007733182283118367, -0.0014921544352546334, 0.0020718122832477093, 0.002069376641884446, -2.5104252927121706e-05, 0.0010805391939356923, -0.0026919373776763678, 0.0006734478520229459, 0.004353941418230534, 0.0050467438995838165, -0.0006476732669398189, -0.0007641610573045909, 0.0002851472527254373, 0.0012537032598629594, -0.005998615641146898, 0.0022486902307718992, -8.489840547554195e-05, -1.6122052329592407e-05, 0.0025203339755535126, 0.0014919176464900374, -0.004465439356863499, -0.00137885264120996, -0.0002347220724914223, 0.0017101196572184563, 0.003876323578879237, 0.0018767114961519837], [-0.4477730691432953, -0.3232756555080414, 0.02656215988099575, 4.283553123474121, 0.27918127179145813, -0.43868762254714966, -1.8414901494979858, -0.542675256729126, 0.22720831632614136, 4.444468975067139, 0.28912267088890076, -0.038833197206258774, -1.3564006090164185, -0.20843113958835602, -0.251117467880249, 0.6526417136192322, 0.0038260305300354958, -0.022270724177360535, -0.06026590242981911, -0.019513985142111778, 0.08337502926588058, -0.4615878462791443, -0.013795900158584118, -0.8155608177185059, 0.1730937957763672, -0.013464498333632946, 0.44156864285469055], [0.00947059877216816, 0.006031926721334457, 0.012319114990532398, -0.005987338721752167, -0.005435815081000328, -0.0002188186626881361, -0.0008383484673686326, 0.0030265578534454107, 0.001725807087495923, -0.00573310861364007, -0.00732104666531086, -0.0002288755786139518, 0.0043101743794977665, 0.0022948940750211477, -0.00324432784691453, 0.020477741956710815, 0.0014584759483113885, -0.0008966138120740652, -0.01071045733988285, 0.008545697666704655, -0.002335185185074806, 0.0030065346509218216, 0.004381980746984482, -0.0007045276579447091, 0.01152894552797079, -0.007940614596009254, -0.00938311219215393], [-0.0003192499279975891, -0.0004261487629264593, 0.00290358392521739, 0.007964852266013622, 0.006292558275163174, -0.001030096085742116, 0.008698713965713978, 0.004008559510111809, -0.0018845641752704978, -0.002594386227428913, 0.00197872007265687, -0.001962601440027356, -0.006736877840012312, -0.00890811625868082, -0.0013532163575291634, -0.011212361045181751, 0.004027476534247398, -0.0016483596991747618, 0.007006720639765263, 0.014831977896392345, -0.004959337413311005, 0.002089887158945203, -0.006192712113261223, -0.0015599023317918181, -0.000965244835242629, 0.002174576511606574, -0.0031973521690815687], [0.00901794247329235, 0.006104620639234781, 0.009607949294149876, -0.0025484140496701, -0.004225917626172304, 0.0006018189596943557, 0.0002055354998447001, 0.00608665868639946, 0.0016057929024100304, -0.006581039167940617, -0.006349331699311733, 0.0014043919509276748, 0.004091731738299131, 0.0004218504764139652, -0.003579591168090701, 0.011102071031928062, -0.00060125975869596, 0.0005516030942089856, -0.0041279844008386135, 0.006190055515617132, -0.0019059519981965423, 0.001829983200877905, 0.0033416494261473417, 0.0007437312160618603, 0.004646607208997011, -0.00994285847991705, -0.009107471443712711], [-0.00703734764829278, -0.004880458582192659, -0.009145948104560375, 0.0009398015099577606, 0.0038453841116279364, -0.0005751803400926292, 0.0005060615949332714, -0.005558351054787636, -0.001939256675541401, 0.005026404745876789, 0.004859453067183495, -0.0010875436710193753, -0.004875044338405132, -0.00029955842182971537, 0.004391414579004049, -0.008029883727431297, 0.00043637288035824895, -3.372548962943256e-05, 0.0033827617298811674, -0.007532249204814434, 0.001363245421089232, 0.00034226159914396703, -0.0021576990839093924, 7.474499579984695e-05, -0.0038253923412412405, 0.010496185161173344, 0.008051685057580471], [0.009002109058201313, 0.005405320320278406, 0.006323283072561026, -0.004150568041950464, -0.004942145198583603, 0.0003895041299983859, 0.0011872751638293266, 0.005519378464668989, 0.0008388824062421918, -0.007436264771968126, -0.007520921994000673, 0.0015351317124441266, 0.0026507959701120853, 0.0009603977669030428, -0.0016309728380292654, 0.012343564070761204, -0.0020911714527755976, 0.0009145924123004079, -0.0034371912479400635, -0.0009568359237164259, -0.002006606897339225, 0.004746470134705305, 0.004110892303287983, 0.0016093276208266616, 0.0024563882034271955, -0.007999060675501823, -0.00757760601118207], [0.040677450597286224, 0.1477927565574646, 0.09671611338853836, -0.49157828092575073, -3.1681320667266846, 0.02577335573732853, 0.11582203954458237, 0.14021773636341095, -0.0613866001367569, 0.07290767878293991, 0.0522630475461483, -0.1094040498137474, -0.08415661752223969, -0.16531780362129211, -0.060602400451898575, -0.06261523813009262, 0.044052526354789734, 0.0006695857155136764, 0.09301216900348663, 0.21903008222579956, 0.14947056770324707, -0.3496971130371094, -0.14579127728939056, -0.02347097173333168, 0.11928395926952362, 0.11595501750707626, -0.02253074012696743], [0.21500730514526367, 0.136403888463974, 0.544550359249115, -1.9839942455291748, -0.11812552809715271, 0.41706162691116333, 0.5042693018913269, 0.1121552512049675, -0.06534072756767273, 2.000603437423706, 0.1086728572845459, -0.8264914155006409, -0.9887760877609253, -0.23188932240009308, -0.21917426586151123, 1.7354676723480225, 0.05121181532740593, -0.13925591111183167, -0.10999229550361633, -0.0043117329478263855, -0.2316107302904129, -2.3011815547943115, -0.06071273609995842, 0.14070318639278412, 0.836465060710907, 0.11459580808877945, 0.02203654684126377], [-0.0054445345886051655, -0.0032197635155171156, -0.007147956173866987, 0.0007593386108055711, 0.0037918705493211746, -0.00038274432881735265, -0.0006875976105220616, -0.005002976860851049, -0.0016734006348997355, 0.005216827150434256, 0.004675829783082008, -0.0008580005960538983, -0.003799423575401306, 0.0006184271187521517, 0.0040006497874855995, -0.006389102432876825, 0.001063683070242405, 0.0005434276536107063, 0.0019442508928477764, -0.004539845511317253, 0.0006389651098288596, -0.0006502342293970287, -0.0015256245387718081, 0.0008600002620369196, -0.0017572192009538412, 0.01027023233473301, 0.006555712781846523], [0.0063986703753471375, 0.00552773242816329, 0.005579722113907337, -0.0026030053850263357, -0.005642115604132414, -0.0006025194888934493, 0.0027712120208889246, 0.005465742666274309, -0.0001496040349593386, -0.008639369159936905, -0.0058432151563465595, -0.00013438976020552218, 0.004612377844750881, -0.0006606521201319993, -0.0037045448552817106, 0.007458433508872986, -0.0027097512502223253, -0.0008602419402450323, -0.0021333149634301662, -0.002793574705719948, 0.0012592276325449347, 0.005490029696375132, -2.1427185856737196e-06, -0.0006251203012652695, 0.00025003691553138196, -0.00833157915621996, -0.010163998231291771], [0.12657994031906128, -0.029391948133707047, 1.131237268447876, 0.3273563086986542, -0.02980545535683632, 0.061099689453840256, -0.4853600263595581, -0.1324755847454071, 0.3934333324432373, -0.1056419163942337, 0.0017923273844644427, 0.8805955648422241, -0.44846683740615845, -0.10845377296209335, 0.8656044006347656, 0.423263818025589, 0.0506071001291275, 0.7225533723831177, 0.9108571410179138, 0.2133580595254898, 0.6007623672485352, -0.3152264356613159, -0.052324213087558746, 0.9831182956695557, -0.45305243134498596, -0.044909264892339706, -0.6042453050613403], [0.09242269396781921, 0.10212057828903198, -1.8966152667999268, 0.08832350373268127, -0.023148899897933006, -0.9158642292022705, -0.14741888642311096, -0.029744569212198257, 0.5246385931968689, 1.4010833501815796, 0.11719813197851181, 0.9265692830085754, 0.09802357852458954, 0.002736413385719061, 0.10934647917747498, -0.5942360758781433, -0.017620552331209183, -0.4599519670009613, -0.28099629282951355, -0.07808089256286621, 0.32678353786468506, -2.5604305267333984, -0.0722118616104126, -0.8980982303619385, 1.1958067417144775, -0.026438547298312187, 0.7090882658958435], [-0.17702461779117584, -0.0399002805352211, -2.390748977661133, -0.8554826378822327, -0.03636383265256882, 0.8362065553665161, 0.034998681396245956, 0.0035691517405211926, 1.9666385650634766, 2.283881902694702, 0.1324402093887329, 1.686422348022461, -0.07386015355587006, -0.06690678000450134, 2.3339483737945557, -0.0169888474047184, -0.05967741832137108, 2.2188427448272705, 0.08942980319261551, -0.053736187517642975, 1.8313770294189453, -2.417349338531494, -0.05767717584967613, 2.706305980682373, 0.1872917115688324, -0.07078754156827927, 2.481447458267212], [0.009736089035868645, 0.006654682103544474, 0.009404699318110943, -0.002967034000903368, -0.00446371641010046, 0.0005204518092796206, 0.0004871041455771774, 0.0065354411490261555, 0.0012961167376488447, -0.007308586034923792, -0.006796093657612801, 0.00141765212174505, 0.003912009298801422, 0.00019405219063628465, -0.0031565683893859386, 0.011526866815984249, -0.0008104774169623852, 0.0006552773411385715, -0.0040438370779156685, 0.005390627775341272, -0.002159929135814309, 0.0026988424360752106, 0.003405428258702159, 0.0010880152694880962, 0.004372633993625641, -0.009731736965477467, -0.009756643325090408], [-0.0031139582861214876, 0.000980518525466323, -0.0006395502714440227, 0.0004100787336938083, -0.00023450335720553994, -1.671118661761284e-05, 8.873598562786356e-05, -0.001324051758274436, 0.0010329196229577065, 0.0031545760575681925, 0.0026084277778863907, -0.00011449717567302287, 0.0011801780201494694, 0.0023788674734532833, 2.9414037271635607e-05, -0.0008923680288717151, 0.001271305838599801, 0.00022541741782333702, -0.0024011724162846804, -0.00127605558373034, 0.002553171245381236, -0.0034563210792839527, 0.0007005445077084005, 0.00012966612121090293, 0.0026967560406774282, -0.00013856712030246854, 0.0003103373455815017], [-0.7682915329933167, -0.2278222143650055, -0.046323079615831375, -0.4291558861732483, -0.05293996259570122, -0.12781381607055664, 0.5302451848983765, 0.10378897935152054, 0.17980563640594482, 1.5987608432769775, 0.08913163840770721, 0.1007922813296318, 0.09998541325330734, -0.00955630000680685, 0.21173661947250366, 0.012480583973228931, 0.003168015042319894, 0.38599663972854614, -0.6200070381164551, -0.07221253961324692, -0.2156796157360077, -1.2957046031951904, 0.005200700834393501, 0.06412237882614136, 0.707162618637085, 0.43600553274154663, -0.21904636919498444], [0.26829105615615845, 0.02610923908650875, 0.6875327229499817, -0.7453165054321289, -0.05345262214541435, -0.22427931427955627, 0.22451487183570862, 0.04084928706288338, -0.26721224188804626, 0.6908755898475647, 0.06632919609546661, 0.04934048280119896, -0.12280086427927017, 0.004469610285013914, -0.5424199104309082, -0.7085581421852112, -0.045225366950035095, -0.3623642325401306, -0.40032726526260376, -0.04990829899907112, -0.37525126338005066, 0.6146402955055237, 0.06924077868461609, -0.3068236708641052, 0.1006876528263092, -0.00951358675956726, -0.3530315160751343], [0.1803554892539978, -0.009848986752331257, 3.009255886077881, -0.5143223404884338, -0.06284330040216446, -0.8924199342727661, 0.35590216517448425, 0.06736527383327484, -0.4893586039543152, -0.09026866406202316, -0.018781078979372978, -0.15569376945495605, -0.15383708477020264, 0.03883503004908562, -0.6432926654815674, -0.8921716809272766, -0.03860863670706749, -1.0638078451156616, -0.3951602876186371, -0.06963281333446503, -1.2147257328033447, 1.0329136848449707, 0.050267770886421204, -1.1734813451766968, 0.18779213726520538, 0.04962803050875664, -1.6874065399169922], [0.6140225529670715, 0.3056508004665375, -0.754920244216919, -3.1125869750976562, -0.14499181509017944, -1.0024482011795044, 0.18513894081115723, 0.040971819311380386, -1.8744279146194458, -1.068713665008545, -0.09416554868221283, -1.6207425594329834, 0.1948864609003067, 0.12179292738437653, -2.1754932403564453, 1.7871036529541016, 0.0848531424999237, -2.308126926422119, 0.10804372280836105, 0.030889417976140976, -1.941757082939148, -0.6440820693969727, 0.05436590686440468, -2.609886646270752, 0.2974995970726013, 0.03538256883621216, -1.6860982179641724], [-0.14259131252765656, -0.018650086596608162, -0.24908389151096344, 0.14543581008911133, -0.26824021339416504, -0.2979820668697357, 0.07529496401548386, 0.04206434264779091, 0.16678260266780853, -0.138241246342659, -0.03703184053301811, 0.8091633915901184, 0.44618597626686096, 0.01279048714786768, 0.058989740908145905, -0.5640190839767456, -0.011108829639852047, -0.13192763924598694, -0.22270958125591278, -0.022312818095088005, 0.1397920399904251, -0.8163885474205017, 0.004297737032175064, 0.28927862644195557, 0.3279350996017456, 0.16625593602657318, -0.2823306918144226], [0.006794981192797422, 0.004250144120305777, 0.00703261187300086, -0.002142237266525626, -0.004034612327814102, 0.00044180394615978, 0.0011708519887179136, 0.005232343915849924, 0.001294657471589744, -0.0062031508423388, -0.005912315100431442, 0.001322028343565762, 0.0028153362218290567, -0.0005434728227555752, -0.0033952791709452868, 0.008800371550023556, -0.0014165531611070037, 0.0003369048936292529, -0.0022149570286273956, 0.0024041677825152874, -0.001673020189628005, 0.002695860806852579, 0.0024117629509419203, 0.00041965817217715085, 0.002229368081316352, -0.009447854943573475, -0.006838367786258459], [0.6783725619316101, 0.18310664594173431, -0.442615807056427, -0.35793691873550415, -0.01796206831932068, -0.1559278815984726, 0.7127344608306885, 0.05954665318131447, 0.11830072849988937, 1.6773563623428345, 0.05888655409216881, 0.5252907872200012, -2.3104360103607178, -0.35117095708847046, 0.4313058853149414, 0.006221785210072994, -0.022418495267629623, 0.2477664202451706, -0.155847430229187, 0.04496763274073601, 0.22663187980651855, -1.2374802827835083, 0.004418700002133846, 0.2793077230453491, 1.631446361541748, 0.08335204422473907, 0.11816883087158203], [0.0006751267937943339, 0.0013778535649180412, 0.002816828666254878, 0.007651264779269695, 0.002470279112458229, -0.00042592338286340237, 0.0140021201223135, 0.0028401529416441917, 0.0004000007756985724, -0.0022293778602033854, 0.0031536242458969355, -0.0010448223911225796, -0.006498934701085091, -0.004408766515552998, -0.0022425937931984663, -0.011004875414073467, 0.003354631830006838, -0.0008893552585504949, 0.000958122662268579, 0.010002575814723969, -0.00040746809099800885, -0.00041082658572122455, -0.004631370306015015, -0.0012525796191766858, 0.0031720115803182125, -0.0017242991598322988, -0.0042090946808457375], [-0.025724831968545914, -0.06346700340509415, -0.17564155161380768, 0.38528376817703247, 0.024999070912599564, 0.30928662419319153, -0.6046008467674255, -0.19669903814792633, 0.14320135116577148, 4.6952433586120605, 0.29683756828308105, -0.7335725426673889, -2.887361764907837, -0.6003361344337463, 0.17963312566280365, 7.338339805603027, 0.1920490860939026, -0.35152900218963623, -0.5231284499168396, -0.0876728817820549, 0.01837003417313099, 0.6170535683631897, -0.002975411480292678, 0.1366608440876007, -0.1822889894247055, 0.021230647340416908, -0.25808387994766235], [0.013758198358118534, 0.007733016274869442, 0.006799447815865278, -0.006447793450206518, -0.006257949396967888, 1.8642371287569404e-05, 0.0022860125172883272, 0.007957237772643566, -0.0003000216092914343, -0.010119854472577572, -0.010452402755618095, 0.0012502081226557493, 0.0038781468756496906, 0.0022245435975492, -8.180685108527541e-05, 0.017566673457622528, -0.0017773059662431479, 0.0005194068653509021, -0.005847484804689884, -0.0029858797788619995, 0.0009534966084174812, 0.007698323577642441, 0.006782802753150463, 0.0006828528712503612, 0.0022605156991630793, -0.007631692104041576, -0.00959801860153675], [-0.0029027804266661406, 0.0028955808375030756, -0.001721965498290956, 0.0004832040867768228, -0.0010698119876906276, 2.437121293041855e-05, 0.0006075330311432481, -0.003517576027661562, 0.000517573207616806, 0.0029270353261381388, 0.0028041813056916, 0.0001726663758745417, -0.0006113631534390152, 0.0031317956745624542, -0.0007594215567223728, -0.003448616014793515, 0.0009129634709097445, 0.0005326891550794244, -0.004233832471072674, -0.004453856032341719, 0.00251616514287889, -0.0032089236192405224, 0.0006688862340524793, 0.0006179073825478554, 0.003150259144604206, -0.0005738322506658733, 0.0008626338094472885], [-0.0025890665128827095, 0.00019804088515229523, -0.00045388154103420675, 0.00022486053057946265, -0.00025299505796283484, -0.00016818582662381232, -0.00020705119823105633, -0.0005025009741075337, 0.0005745334201492369, 0.002318252809345722, 0.0018062922172248363, -0.00041307698120363057, 0.0017290518153458834, 0.0018260960932821035, -0.000738350092433393, 0.00011835904297186062, 0.0010068166302517056, -0.0001727479975670576, -0.0020045118872076273, -0.0007012490532360971, 0.0033985048066824675, -0.00249302014708519, 0.00047815917059779167, -0.00025936984457075596, 0.0017951856134459376, -0.0003414755337871611, -0.00046560444752685726], [-5.26525400346145e-05, -0.00223496463149786, 0.0005148353520780802, 7.93143772170879e-05, 0.0005898775416426361, -0.00012549757957458496, 0.000364810781320557, 0.0008686367073096335, 6.806933379266411e-05, -0.0005007850704714656, -0.0006719279335811734, -0.00012382444401737303, 0.00034823044552467763, -0.0015000640414655209, 0.000703029683791101, 0.0002638628939166665, 0.00031914186547510326, -0.00021245991229079664, 0.0014671958051621914, 0.001871096552349627, -0.00048039923422038555, 0.0004491746367421001, -0.0005396613269113004, 8.967240137280896e-05, -0.0009761066758073866, -0.0006325477734208107, -0.002092743059620261], [-0.027332395315170288, -0.08717159926891327, 0.12308068573474884, 0.142091765999794, 0.020539559423923492, 0.35919156670570374, -0.058082710951566696, -0.019913233816623688, -0.038830000907182693, 0.43221375346183777, 0.031148023903369904, -0.4269792437553406, 0.24029280245304108, 0.008480952121317387, 0.04888865724205971, -7.583856582641602, -0.20615236461162567, 0.46114975214004517, 3.00852108001709, 0.5922374725341797, -0.6391128897666931, -6.481133460998535, -0.20083053410053253, 1.0238224267959595, 0.44055885076522827, 0.06607773154973984, -0.03525882959365845], [0.0109639223664999, 0.006791542284190655, 0.00915940199047327, -0.0053566088899970055, -0.004750915803015232, 0.0006383455474860966, 0.0010679902043193579, 0.006029054988175631, 0.0014328425750136375, -0.007917291484773159, -0.008517121896147728, 0.0017536678351461887, 0.002999835181981325, 0.0014242574106901884, -0.0016134915640577674, 0.016090678051114082, -0.0007559927762486041, 0.001063106581568718, -0.005449431482702494, 0.003542626276612282, -0.001844753511250019, 0.00457543320953846, 0.005871199537068605, 0.00144404626917094, 0.005479750689119101, -0.00838332436978817, -0.00874385703355074], [0.10380671918392181, 0.036819204688072205, -3.7796599864959717, 0.6194888949394226, 0.027469255030155182, -1.0414836406707764, -0.10785552859306335, -0.013373790308833122, -0.5630619525909424, -1.916749358177185, -0.11100029945373535, -0.3350425958633423, 0.2894528806209564, 0.09354107081890106, -1.13079833984375, 0.07544466108083725, 0.0369405597448349, -1.652634620666504, -0.008165067993104458, 0.012048037722706795, -0.9427014589309692, 1.7077808380126953, 0.015089912340044975, -2.3965821266174316, -0.24701637029647827, 0.02769789844751358, -1.5264521837234497], [-1.0488001862540841e-05, -0.0003504083142615855, 0.001299439463764429, 0.0016368480864912271, 0.002432469045743346, 0.0001328275102423504, 0.0019308029441162944, 0.0012430083006620407, 0.000410501379519701, -0.001172103569842875, 0.0011015968630090356, -0.0003105727955698967, -0.0026036230847239494, -0.003817238612100482, 0.0015837866812944412, -0.0038323262706398964, 0.0007312588859349489, -0.00028229376766830683, 0.004205440636724234, 0.007391391787678003, -0.004366826731711626, 0.0001763979671522975, -0.0024314916227012873, -0.0002516031381674111, 8.090195478871465e-06, 0.0031584100797772408, 0.0008817506022751331], [-0.006445873063057661, -0.0030163428746163845, -0.004174830392003059, 0.002264314331114292, 0.0038369225803762674, -7.617822848260403e-05, -0.0010224434081465006, -0.004407962318509817, -0.00014167424524202943, 0.006255145650357008, 0.005903638433665037, -0.0009038033313117921, -0.0016916432650759816, 0.0005076058441773057, 0.0025473283603787422, -0.007242122199386358, 0.002265548100695014, -3.8352114643203095e-05, 0.0011036955984309316, 0.0016121161170303822, 0.0011122210416942835, -0.004171150736510754, -0.0017444881377741694, -0.00018516405543778092, 4.406299558468163e-05, 0.007372650317847729, 0.005322801880538464], [-0.006571057252585888, -0.0030971786472946405, -0.0019269709009677172, 0.007354337722063065, 0.005809910595417023, -0.0014339388580992818, 0.002467215294018388, -0.002172657987102866, -0.002192164771258831, 0.003408009884878993, 0.006732942070811987, -0.0028248431626707315, -0.005891186650842428, -0.006591872777789831, -0.00141668482683599, -0.014550537802278996, 0.0034726671874523163, -0.002674971939995885, 0.006235093344002962, 0.007867757230997086, -0.0024608285166323185, -0.0015960499877110124, -0.007780322805047035, -0.0031724460422992706, -0.0024066525511443615, 0.004884914495050907, 0.003027815604582429], [0.00935144443064928, 0.006387149449437857, 0.009982164949178696, -0.0029834085144102573, -0.004254860803484917, 0.0005916080554015934, 0.00016738368140067905, 0.006027274299412966, 0.0015525510534644127, -0.00647379457950592, -0.006569705903530121, 0.0013740613358095288, 0.004025566391646862, 0.0005479730316437781, -0.0035016413312405348, 0.012560698203742504, -0.00030202785274013877, 0.0004633568169083446, -0.004771287553012371, 0.006770542822778225, -0.0017380130011588335, 0.002041382947936654, 0.003705691546201706, 0.0005330995190888643, 0.0054798852652311325, -0.009919403120875359, -0.00893174298107624], [0.3178476393222809, 0.018508514389395714, -0.6533779501914978, -0.06753434240818024, -0.01681053265929222, -0.38804277777671814, -0.25722989439964294, -0.1157751977443695, -0.2061305046081543, -1.2319300174713135, -0.08021841198205948, -0.21356484293937683, -1.1271910667419434, -0.13223476707935333, -0.6178150773048401, 1.1316027641296387, 0.0712457150220871, -0.5531796813011169, 1.8691189289093018, 0.39028435945510864, -1.0586035251617432, 2.3591294288635254, 0.036768727004528046, -0.9019920825958252, -2.4025394916534424, -0.17315830290317535, 1.4270014762878418], [-0.0683375746011734, -0.08436543494462967, 0.03731290251016617, 0.6392878890037537, 0.051230642944574356, 0.25166091322898865, -0.7668569087982178, -0.2470569908618927, 0.03312079980969429, 4.004116535186768, 0.23569338023662567, -0.7509894371032715, -1.3273875713348389, -0.23046545684337616, -0.0818319320678711, 2.2031424045562744, 0.061210643500089645, 0.2996870279312134, -0.22105729579925537, -0.011012308299541473, 0.0854429230093956, -1.717657446861267, -0.03223169595003128, -0.05648393929004669, 0.5855056047439575, 0.021437713876366615, -0.26649269461631775], [-0.330967515707016, -0.03831677511334419, 1.744911789894104, 1.5911097526550293, 0.14124695956707, -0.042022548615932465, -0.4360513985157013, -0.10427781194448471, 0.0509713850915432, 0.033329129219055176, 0.01083849836140871, 0.9404179453849792, 0.1661980301141739, -0.03746943920850754, 0.36968761682510376, 0.2978542149066925, 0.008853886276483536, 0.5811671614646912, 0.3342500627040863, 0.05130789801478386, 0.9179114699363708, -0.8494018316268921, -0.08331160247325897, 1.0778934955596924, -0.14870616793632507, -0.03820540010929108, 1.262220025062561], [-0.007980110123753548, -0.005048360209912062, -0.007544458378106356, 0.0029354500584304333, 0.004426626954227686, -0.0004722809244412929, -0.0011960514821112156, -0.005510925315320492, -0.00122552877292037, 0.006928237155079842, 0.006607957184314728, -0.00146959675475955, -0.0030319395009428263, -3.669010766316205e-05, 0.0028530536219477654, -0.01025516726076603, 0.0015428006881847978, -0.0006558270542882383, 0.0028861730825155973, -0.0019547040574252605, 0.0019270464545115829, -0.0032808203250169754, -0.003145820228382945, -0.0009723745170049369, -0.0027275497559458017, 0.009046224877238274, 0.007874310947954655], [-0.04371946305036545, 0.02714969590306282, 0.2981007695198059, 0.6303339600563049, 0.030237209051847458, 0.3743283748626709, 0.08991068601608276, 0.04003524407744408, -0.22739405930042267, -0.2052019238471985, -0.0010087316622957587, -1.0139975547790527, -0.24658167362213135, -0.012552219443023205, -0.29782190918922424, 3.5636157989501953, 0.11151367425918579, 0.10247766226530075, -1.6380640268325806, -0.377163290977478, 0.09952402859926224, 3.8454604148864746, 0.127158060669899, 0.020699208602309227, -0.19147126376628876, -0.058372437953948975, -0.04841183125972748], [0.009038973599672318, 0.005755928810685873, 0.007664155215024948, -0.003472375450655818, -0.004622834734618664, 0.0004192761261947453, 0.0012876192340627313, 0.0060315667651593685, 0.0009534395067021251, -0.007660320959985256, -0.007267370820045471, 0.0014851187588647008, 0.0028491809498518705, 0.00019109778804704547, -0.002607092261314392, 0.011661872267723083, -0.0015877617988735437, 0.000687577179633081, -0.0032983238343149424, 0.0016995093319565058, -0.0018288970459252596, 0.004194711800664663, 0.003545369952917099, 0.0011307980166748166, 0.00301955034956336, -0.008923394605517387, -0.008675361052155495], [-0.0059563773684203625, -0.0053494772873818874, -0.007843566127121449, 0.0011874432675540447, 0.005512505304068327, 0.0005230660899542272, -0.0012341401306912303, -0.005871644243597984, -0.0004538638168014586, 0.007909569889307022, 0.004962531849741936, 0.0003646531840786338, -0.00570882111787796, 0.0009655672474764287, 0.005152001511305571, -0.007087403442710638, 0.0016096056206151843, 0.001262602978385985, 0.003083938267081976, -0.0027014026418328285, -0.00036489847116172314, -0.002580533269792795, 0.000431356078479439, 0.0012174410512670875, -0.00161914830096066, 0.010445524007081985, 0.011375613510608673], [0.010570932179689407, 0.007235218305140734, 0.0057313633151352406, -0.004663703963160515, -0.006838588044047356, -0.000637279823422432, 0.003361042123287916, 0.007261635735630989, -0.0009140039328485727, -0.010215653106570244, -0.008373782970011234, 0.00010810059757204726, 0.004893144126981497, 0.0007358464645221829, -0.0021889242343604565, 0.013109713792800903, -0.002774216001853347, -0.0006594053120352328, -0.004729218315333128, -0.006189449690282345, 0.003110046498477459, 0.00812631193548441, 0.002729892497882247, -0.0008654393022879958, 0.0003730723401531577, -0.007699352223426104, -0.011000442318618298], [0.010163740254938602, 0.0047820936888456345, 4.456270835362375e-05, -0.0034640636295080185, -0.005421694368124008, -0.0009137794841080904, -0.0016334145329892635, 0.0051680682227015495, -0.0021732118912041187, -0.006418540608137846, -0.007478087674826384, -0.0001009455299936235, 0.003881612094119191, 0.0032615186646580696, -0.00048579979920759797, 0.010646960698068142, -0.0035603023134171963, -0.0006457179551944137, -0.004000754561275244, -0.010814241133630276, 0.00227441661991179, 0.007720552384853363, 0.0023943192791193724, -0.0007407243829220533, -0.002593738492578268, -0.004685183521360159, -0.004643613938242197], [0.007082041818648577, 0.0032216550316661596, 0.007786794565618038, -0.006368905305862427, -0.004195561632514, 0.0016863131895661354, -0.0005472556804306805, 0.0017042574472725391, 0.0038434492889791727, -0.00261660641990602, -0.005763405002653599, 0.002665327861905098, 0.00455440953373909, 0.005125071853399277, -0.0002219272282673046, 0.014493419788777828, -0.00020929003949277103, 0.00239165173843503, -0.0058388132601976395, 0.0025899300817400217, 0.00011387573613319546, -0.0017420792719349265, 0.00819562841206789, 0.0028876783326268196, 0.006746362429112196, -0.005644014570862055, -0.004940512590110302], [-0.27817943692207336, -0.17793430387973785, 1.986777901649475, 2.4930601119995117, 0.21181777119636536, 0.7221119403839111, -0.3170165717601776, -0.1148877814412117, 0.2610345184803009, 1.88079833984375, 0.13765421509742737, -0.24132710695266724, -1.4539307355880737, -0.23239603638648987, 0.10578322410583496, 0.042913295328617096, -0.0210829209536314, 0.025682741776108742, -0.11779890209436417, -0.023426048457622528, -0.08307339251041412, 0.7306151986122131, 0.028977788984775543, 0.29053643345832825, 0.2725941836833954, -0.001053995336405933, -0.36358052492141724], [0.005293631460517645, 0.004819262772798538, 0.006866840645670891, -0.00020375949679873884, -0.005061141215264797, -0.0006526913493871689, 0.0013065461535006762, 0.0056891003623604774, 0.0002055838704109192, -0.008289774879813194, -0.004449717700481415, -0.0005378648638725281, 0.005453568883240223, -0.0014591907383874059, -0.005816375371068716, 0.0031432071700692177, -0.001978631829842925, -0.0013282585423439741, -0.0014631111407652497, 0.0023401095531880856, 0.0012720070080831647, 0.002119639189913869, -0.001386398682370782, -0.001277181669138372, 4.5247954403748736e-05, -0.010302330367267132, -0.011957679875195026], [0.006789825856685638, 0.003983163740485907, 0.00613520247861743, -0.0027647074311971664, -0.004087408073246479, 0.0004477540496736765, 0.0011682623298838735, 0.0047415816225111485, 0.0011125541059300303, -0.00609922967851162, -0.006242209114134312, 0.0014600278809666634, 0.002334553748369217, -5.378875357564539e-05, -0.002665820764377713, 0.009600034914910793, -0.0017455312190577388, 0.0005592227098532021, -0.00234508840367198, 0.0004964187974110246, -0.0015867906622588634, 0.0033999746665358543, 0.0029591708444058895, 0.000698032439686358, 0.0020034420304000378, -0.00874335877597332, -0.00606554327532649], [-0.010476862080395222, -0.004911803640425205, -0.00844402052462101, 0.007419864647090435, 0.0049724699929356575, -0.0011802883818745613, -0.00046967106754891574, -0.003800142090767622, -0.0025532233994454145, 0.006106553133577108, 0.008274523541331291, -0.0021442710421979427, -0.004211633466184139, -0.004032328724861145, 0.00022678777168039232, -0.0173414945602417, 0.0006063167820684612, -0.001900952192954719, 0.006696904543787241, -0.002128983149304986, 7.64454307500273e-06, -0.0020957759115844965, -0.008336439728736877, -0.002447442151606083, -0.006155629642307758, 0.005752464756369591, 0.007492027245461941], [0.08229641616344452, -0.029009850695729256, 0.4890693426132202, -0.831044614315033, -0.05908908322453499, 0.2690456509590149, -0.006563355214893818, -0.01764955185353756, 0.029487784951925278, 0.48751017451286316, 0.01281797606498003, -0.06078880652785301, 0.17795301973819733, 0.1107063814997673, 0.06095568463206291, 0.2304701805114746, -0.01901671476662159, 0.039093781262636185, 0.5239169597625732, 0.11618897318840027, 0.09957459568977356, -4.016773223876953, -0.0827958732843399, 0.4965238869190216, 0.685382604598999, 0.06006362661719322, 0.06584446877241135], [0.007778221275657415, 0.005246148910373449, 0.00283865537494421, -0.00035418508923612535, -0.004656974226236343, -0.0014796146424487233, 0.0029955701902508736, 0.006114543881267309, -0.002733539557084441, -0.011188466101884842, -0.004880835767835379, -0.0014681960456073284, 0.003534004557877779, -0.002587609924376011, -0.004042012616991997, -0.0017492701299488544, -0.003529296023771167, -0.0019543024245649576, 0.0012481978628784418, -0.00408580806106329, 0.0033763768151402473, 0.005907920654863119, -0.0031822125893086195, -0.0017530233599245548, -0.003696040017530322, -0.005124133080244064, -0.012689294293522835], [-0.14919458329677582, 0.00233549065887928, 0.04315873980522156, 0.4636100232601166, 0.0655159279704094, 0.3238833248615265, 0.15881721675395966, 0.06893659383058548, 0.25369003415107727, -0.7424899935722351, -0.04368477314710617, -0.5388925671577454, -0.07215765863656998, -0.06146005541086197, -0.06593719124794006, 0.008272852748632431, 0.02209755778312683, -0.3509766459465027, -0.3309573829174042, -0.02673163264989853, -0.1349545270204544, 2.4826672077178955, 0.04559716209769249, -0.5203202366828918, -0.4329206049442291, 0.04324563220143318, -0.5817275643348694], [-0.0072272298857569695, -0.004945255815982819, -0.008965187706053257, 0.0015129144303500652, 0.003944566939026117, -0.0005666529177688062, -2.1651925635524094e-05, -0.005550718866288662, -0.001775961252860725, 0.005524129141122103, 0.005355415400117636, -0.0011908949818462133, -0.004261549562215805, 2.7389258320908993e-05, 0.00416385056450963, -0.009174213744699955, 0.0005977792316116393, -0.00011411277228035033, 0.003385174088180065, -0.006649948190897703, 0.0014025067212060094, -0.0006481853779405355, -0.0024378912057727575, 4.647006790037267e-05, -0.003923704847693443, 0.010412279516458511, 0.0079951835796237], [0.009521815925836563, 0.0065922546200454235, 0.00926403608173132, -0.002677579177543521, -0.004474981222301722, 0.0004643919528461993, 0.00048793581663630903, 0.006561319809406996, 0.0012362494599074125, -0.007271460257470608, -0.006541157606989145, 0.001363326795399189, 0.003981526475399733, -1.6769692592788488e-05, -0.0031545243691653013, 0.010632121004164219, -0.000918966659810394, 0.0006276945932768285, -0.003659876063466072, 0.005218767561018467, -0.002403288846835494, 0.0024841849226504564, 0.0030090762302279472, 0.0011421855306252837, 0.003945283591747284, -0.009779240936040878, -0.009830309078097343], [-0.8323030471801758, -0.3822692632675171, -0.870190441608429, 4.755156993865967, 0.33322873711586, -0.13793326914310455, -0.7299580574035645, -0.20188473165035248, -0.423480749130249, 0.9944679737091064, 0.08021940290927887, -0.3917277455329895, -0.43549197912216187, -0.036905255168676376, -0.2879190146923065, -1.02448308467865, -0.016990384086966515, -0.7989416718482971, -0.03206537663936615, -0.0001285310136154294, 0.29058730602264404, 1.5408658981323242, 0.024703796952962875, -0.05943452566862106, -0.2387479692697525, -0.02545042149722576, 0.2322406768798828]], "model.net.0.bias": [-0.2664133906364441, 0.001745086396113038, 0.3203192353248596, 0.41440388560295105, -0.5449578762054443, 0.0002479276154190302, -0.0009208058472722769, -0.507128119468689, -0.0003421282453928143, -0.0006453001988120377, -0.6127554774284363, 0.3515860140323639, -0.33975985646247864, -0.0008530893246643245, -0.0005600133445113897, 0.00021186700905673206, -0.0006567136151716113, -0.0007191153708845377, 0.0005528910551220179, -0.0001547565625514835, 0.00010132373427040875, 0.9060146808624268, 0.8900355100631714, -0.07262025773525238, -0.001472633215598762, 0.0007289305212907493, 0.45929205417633057, 0.002549168886616826, 0.0006853465456515551, 0.0006748026353307068, -0.0010143935214728117, -0.00028510301490314305, -0.004935059696435928, 0.4341738224029541, -0.000635378819424659, 0.0006381692364811897, 0.2125139832496643, 0.2645583152770996, 0.33722859621047974, 0.0005577495903708041, 0.0004975443007424474, 0.31371036171913147, -0.9719728827476501, -0.05261404067277908, -0.4969042241573334, 0.02436956577003002, 0.00013939570635557175, 0.13774485886096954, 0.0009849456837400794, 0.8968125581741333, -0.0005184264737181365, 0.0008139395504258573, 0.0004879420157521963, -0.00031398923601955175, -1.0917102098464966, 0.00010550985462032259, -0.1096503734588623, 1.1184674804098904e-05, 0.00033547438215464354, 0.0012467678170651197, 0.0007196111837401986, -0.43029680848121643, 0.5338643789291382, 0.12124820053577423, -9.380785922985524e-05, 0.5708487033843994, 4.207164602121338e-05, -0.0016323121963068843, 0.0001930158177856356, -0.0007138755172491074, -0.00028329642373137176, 1.4847875833511353, 0.001551806810311973, -0.00019208324374631047, 0.00014296223525889218, -1.064218282699585, 0.0008068990428000689, 1.9711637496948242, -0.0007977419882081449, 0.0005752661381848156, -0.13357722759246826], "model.net.2.weight": [[0.5282984375953674, -0.004994314629584551, 1.0925301313400269, -1.4250342845916748, 2.1060924530029297, -0.0022591815795749426, -0.001519415294751525, 1.1278321743011475, -0.0008445857674814761, -0.000727084290701896, 0.8197920322418213, -1.5081220865249634, -1.3110473155975342, 4.192806227365509e-05, -0.0007960374932736158, 0.0013301502913236618, 0.001859288546256721, 0.0003490548406261951, 0.0007714802050031722, -0.0003646642144303769, -0.0013865591026842594, -1.3849986791610718, 0.7936821579933167, 2.064301013946533, 0.0023673023097217083, -0.001022152602672577, -0.6991016864776611, 0.0017816767795011401, -0.005908870603889227, 0.0009233463206328452, -0.00053745589684695, 0.0018692145822569728, 0.20222853124141693, 1.6058818101882935, -0.0004822304763365537, 0.0011147772893309593, -0.8691037893295288, -2.0038280487060547, -1.8171998262405396, 0.0009855785174295306, 0.0007811160758137703, -0.4890539050102234, -0.538128674030304, -1.586870551109314, -0.8777775764465332, -0.8683629035949707, 0.000961720128543675, -0.5690624117851257, -0.003196151927113533, 1.0187867879867554, 0.002579395892098546, 0.0017241659807041287, 0.0005737158935517073, -0.0008271874394267797, 1.1345491409301758, 0.001722796238027513, -2.415226936340332, -0.002745764795690775, -0.0011721861083060503, -0.004252266604453325, 0.0010432564886286855, -0.3888052701950073, 0.9506391882896423, -1.1682130098342896, -0.0012184504885226488, 1.5146092176437378, 0.0013476728927344084, -0.0005341740907169878, 0.0022884912323206663, 0.003603609511628747, 0.0020501865074038506, 1.4257696866989136, -1.2926837371196598e-05, 0.0013646804727613926, -0.0021881889551877975, 0.4288216531276703, -0.0005718662869185209, 0.8200016021728516, -0.0006786708254367113, 0.0008976055542007089, 0.5001254081726074], [-1.1401654481887817, -0.0006406125612556934, 0.9224798679351807, -1.5407934188842773, 2.182556629180908, -0.001138067920692265, -0.00111048121470958, 1.2302674055099487, -0.0008129602065309882, -0.0002320620696991682, 0.6439398527145386, -1.8795167207717896, -1.3669359683990479, -0.00033171704853884876, -0.0006769132451154292, 0.0004167006991337985, 0.0004452568828128278, -0.00048273324500769377, 0.0010157185606658459, -5.6320553994737566e-05, -0.0004212742787785828, -1.4407212734222412, 0.9912493228912354, 2.392516851425171, -0.0012817104579880834, 0.00013865299115423113, -0.6978687644004822, 0.000817634048871696, -0.001884078374132514, 0.0003216378390789032, 0.00010780536103993654, 0.0008607838535681367, 0.10980904847383499, 1.49810791015625, 0.00010132571333087981, 0.0009116174187511206, -0.8186464309692383, -2.05268931388855, -1.7559564113616943, 0.0004666991007979959, 0.0006376549135893583, -0.9092249870300293, -0.10956580936908722, -1.278163194656372, -0.8245282769203186, 0.052558135241270065, 0.00023663336469326168, -0.5295814871788025, 0.0005221163737587631, 1.3095085620880127, 0.0016745270695537329, 0.0018014945089817047, 0.0003023651661351323, -0.0006851279176771641, 1.0333609580993652, 0.0009507325594313443, -2.4389307498931885, -0.000782802642788738, -0.00035157956881448627, -0.0014323110226541758, 0.00035123800626024604, -0.47575274109840393, -0.282851904630661, -0.6593846082687378, -0.0004990714369341731, 0.7059550285339355, 0.0006585018709301949, -0.00040455005364492536, 0.0015999142779037356, 0.0013747657649219036, 0.0006613697041757405, 1.6438959836959839, 0.00035738732549361885, 0.00039753803866915405, -0.0011271291878074408, 0.9810356497764587, 0.0010492781875655055, 1.3139615058898926, -4.763627657666802e-06, 0.0004328064969740808, 0.8724703192710876]], "model.net.2.bias": [-0.1970655918121338, -0.6176440119743347]}}, "expert_1": {"shapes": {"model.net.0.weight": [81, 27], "model.net.0.bias": [81], "model.net.2.weight": [2, 81], "model.net.2.bias": [2]}, "weights": {"model.net.0.weight": [[-0.004954268224537373, -0.018477631732821465, 0.0005501709529198706, 0.000502483977470547, -0.0016613968182355165, -0.0011344143422320485, -0.01788552850484848, 0.02060226909816265, -0.000588304246775806, -0.007247486151754856, 0.003913081716746092, -0.0011863312683999538, 0.02563076838850975, 0.009617343544960022, -0.007546382024884224, -1.0598006833223334e-37, 4.647851409325525e-37, -3.1681983884850304e-37, -0.024210017174482346, -0.0008815570618025959, -0.005618302151560783, 0.004675362724810839, 0.00014040307723917067, -0.0018508601933717728, 0.005201903637498617, -0.0005958568071946502, 0.0016462195198982954], [0.2019675225019455, 0.23830324411392212, 0.0883241817355156, -0.08120530843734741, -0.2218405157327652, -0.28647133708000183, 0.01491648517549038, -0.005725659895688295, -0.07787390053272247, -0.3472747504711151, -0.06865811347961426, 0.0626053735613823, 0.37875187397003174, 0.07879747450351715, -0.06488247215747833, 5.050418674234302e-37, 4.121324161223804e-38, 1.7325552198383835e-37, 0.09538478404283524, 0.025008196011185646, 0.030034264549613, -0.04720962420105934, -0.014805706217885017, -0.09930137544870377, 0.20249027013778687, -0.0577864944934845, 0.07508812099695206], [0.6022619009017944, 0.26625514030456543, -0.5301045775413513, -0.5729653239250183, -0.05452144145965576, -0.6931350827217102, -0.3649733066558838, -0.06249476596713066, -0.4076526165008545, 0.8180858492851257, 0.05355624109506607, -0.3497198224067688, -0.41667020320892334, -0.21757228672504425, -0.09802553802728653, 3.4737229321423846e-37, 2.7941830842543194e-37, -4.91183092873584e-37, -0.1461513340473175, -0.36081114411354065, -0.5736508369445801, -0.565365195274353, -0.05506075918674469, -0.6207134127616882, 0.3174241781234741, -1.7282160520553589, -0.05957889184355736], [0.5118721723556519, 0.11722345650196075, -0.18361049890518188, 0.08627387136220932, -0.036082178354263306, -0.936728835105896, -0.3848477005958557, -0.2572645843029022, -0.23591585457324982, 1.4945124387741089, 0.07288974523544312, 0.3799653649330139, -0.39207205176353455, -0.21017198264598846, -0.3759245276451111, -8.535970359077622e-38, -4.555065720704845e-37, -2.162367202113826e-37, 0.4792432188987732, 0.20254765450954437, -0.33446481823921204, -2.639493227005005, -0.15391427278518677, -0.14367762207984924, 0.7910057306289673, 0.1801300346851349, 0.6896945834159851], [0.24825146794319153, -0.004487085156142712, 0.1286519169807434, -0.01908165030181408, -0.0076087117195129395, -0.09672670811414719, -0.020439667627215385, 0.057054776698350906, 0.010503645054996014, -0.2747959494590759, 0.07039450109004974, 0.031898077577352524, 0.11637535691261292, -0.04785632714629173, -0.11879121512174606, 4.293170884993937e-37, 3.4652474306146395e-37, 4.914961317401265e-37, 0.12749317288398743, 0.09025394916534424, -0.03734094649553299, 0.4722481071949005, 0.19721980392932892, -0.02643994428217411, -0.21764734387397766, -0.09722781181335449, 0.033636078238487244], [-0.004191583022475243, 0.00034790023346431553, -0.0011711418628692627, 0.0014903924893587828, -0.0013033166760578752, 4.231555067235604e-05, -0.0069640278816223145, 0.0030059018172323704, 0.003592083929106593, 0.0005900150281377137, -0.0022271480411291122, -0.000309786235447973, 0.008470650762319565, -0.002353531075641513, -0.002284188522025943, -5.260087116179824e-38, 2.411482420037846e-37, -3.3379229858607894e-37, -0.0024420800618827343, -0.0032789702527225018, 0.00312315602786839, 0.006107133813202381, 0.0015618841862305999, 5.811950541101396e-05, 0.0008785406826063991, 0.0070949215441942215, -0.0044446075335145], [-0.0025798678398132324, 0.013791725970804691, -0.0017278768355026841, 0.0009437892003916204, -0.0010119653306901455, 0.0006721796817146242, 0.004644302185624838, -0.008282847702503204, 0.0038521618116647005, 0.0079269390553236, -0.0050271982327103615, 0.0010835945140570402, -0.0061036366969347, -0.01047647837549448, 0.005513236857950687, 3.830675577855968e-37, -4.381504256029887e-37, -1.1523617157732134e-38, 0.0056730760261416435, 9.663344826549292e-07, 0.005657297559082508, 0.0017769879195839167, 0.002986864885315299, 0.0020261022727936506, 0.006506818812340498, 0.011890584602952003, -0.009852386079728603], [0.23805947601795197, 0.05625265836715698, -3.555051803588867, 0.1361677050590515, 0.029058920219540596, -1.7584459781646729, -0.013219908811151981, -0.04496204853057861, -0.7552676200866699, -2.5871775150299072, -0.22833342850208282, -0.9349311590194702, 0.0947529524564743, -0.031167268753051758, -1.1658579111099243, -1.6064786033410454e-37, 4.849465187698108e-38, -6.220896376554306e-39, 0.13485737144947052, 0.021684087812900543, -0.6774774193763733, 2.434217691421509, 0.0037336295936256647, -2.0856704711914062, -0.3721105456352234, -0.05029493570327759, -1.1096888780593872], [0.29946139454841614, 0.12114488333463669, -0.12961925566196442, -0.09696229547262192, -0.08400770276784897, -0.33403676748275757, -0.15603488683700562, 0.05905972793698311, -0.13659949600696564, 0.11532971262931824, -0.07170355319976807, 0.11501598358154297, 0.17042839527130127, -0.08707816898822784, 0.029001209884881973, -1.9348478992909627e-38, -1.6339714065878354e-37, -2.6294261459865304e-38, 0.00024533254327252507, -0.032666124403476715, 0.04920133575797081, -0.6536895036697388, -0.21744702756404877, -0.05774610862135887, 0.3461126685142517, 0.06253273040056229, 0.07303482294082642], [0.15554611384868622, 0.009783251211047173, -0.8942925333976746, 0.6599752902984619, 0.03254048898816109, -0.7814937829971313, 0.518936276435852, 0.05304805189371109, 0.2490965873003006, -1.3602957725524902, -0.27558860182762146, 0.0974300280213356, -0.0991440936923027, 0.005814161151647568, 0.09410399198532104, 1.3596025482591393e-37, 2.20454247435818e-37, -1.145247491625652e-37, -0.418660968542099, -0.005647204350680113, -1.7650734186172485, 0.9517105221748352, 0.027559582144021988, -0.6886014938354492, 0.5293291211128235, 0.07878196239471436, -1.9945776462554932], [-0.1625216156244278, 0.13990718126296997, 0.016812961548566818, -0.2373129427433014, -1.6884410381317139, 0.3654596209526062, -0.32283341884613037, 0.1986236423254013, 0.11619853228330612, 0.474490761756897, 0.17555059492588043, -0.16348214447498322, 0.22825448215007782, -0.0726049542427063, 0.3458836078643799, 1.0765357743104404e-38, 5.805613168860861e-39, 4.038221557095485e-37, -0.018501371145248413, 0.08173020929098129, -0.07330599427223206, -0.31203076243400574, -0.0028716132510453463, 0.07352549582719803, 0.3107174336910248, 0.004518505651503801, 0.33397427201271057], [-0.13742858171463013, -0.001167899346910417, 0.4727822542190552, 0.20936553180217743, 0.07580224424600601, -0.6939082741737366, 0.9521304368972778, 0.3601748049259186, 0.8493571877479553, -4.965779781341553, -0.28744617104530334, -0.1150365024805069, 1.4271010160446167, 0.34266677498817444, -0.26159730553627014, -5.405535955271251e-37, -1.7119108424464418e-37, 2.679586465296116e-37, -1.423974633216858, -0.33776307106018066, 0.2833101451396942, 6.480833053588867, 0.21848691999912262, -0.5072588920593262, -1.1868053674697876, -0.16960649192333221, -0.16099810600280762], [-0.0005623316974379122, -0.002716285642236471, 0.0008780185016803443, -0.001741316169500351, 0.0007905698148533702, -5.850754678249359e-05, 0.007427825592458248, -0.00184085953515023, -0.003300117328763008, -0.0004614933277480304, 0.0022266122978180647, 0.0004966029082424939, -0.005782950669527054, 0.0011653867550194263, 0.005108329001814127, -1.5662084243849103e-37, -1.7217294605262729e-37, -5.466898030296895e-38, -6.42704326310195e-05, 0.00700681796297431, 0.004933487623929977, -0.007523888722062111, -0.0013451859122142196, 0.0007244106382131577, 0.0017749130493029952, -0.0029672314412891865, -0.005342078860849142], [0.003790434682741761, -0.0071358270943164825, 0.001400815206579864, -0.001521004014648497, 0.001415012520737946, -0.0006778667448088527, 0.003333148779347539, 0.0005717171588912606, -0.004477158188819885, -0.003734996309503913, 0.0037776234094053507, -0.0008152821683324873, -0.003511255607008934, 0.005602021235972643, -0.00102538603823632, -2.8761016472322224e-37, -5.660213543371501e-37, -1.6682866275899759e-37, 0.0014012528117746115, 0.0020198689308017492, -0.0008337905164808035, -0.005341345444321632, -0.0029653282836079597, -0.0012252602027729154, -0.005560803692787886, -0.009319794364273548, 0.0049951099790632725], [-0.8053979873657227, -0.4048649072647095, 0.03339286148548126, 3.508660078048706, 0.22075408697128296, 1.1044716835021973, -1.4052003622055054, -0.5015267133712769, 2.472607135772705, 3.466832160949707, 0.3396759033203125, 0.6323098540306091, -0.6455929279327393, -0.0713115930557251, 3.2303099632263184, 1.9519583140597545e-38, 2.6259907226713917e-38, 9.36288667222464e-38, 0.16692668199539185, -0.023821087554097176, 2.0412049293518066, -0.24848712980747223, 0.004189810715615749, 0.8483054637908936, -0.43875378370285034, -0.05080525577068329, 0.9773523807525635], [0.005644370801746845, -0.003247375600039959, 0.0033080384600907564, -0.0007109962753020227, 0.00031456875149160624, 0.0005207739886827767, -0.0026084729470312595, 0.0030364408157765865, -0.002342674182727933, -0.0026281848549842834, 0.0017661908641457558, 0.00037424248876050115, 0.002071207156404853, 0.0036353704053908587, 0.00030951082590036094, 6.213822846114149e-37, -4.926893654084683e-38, -3.78959085212849e-37, -0.001990570453926921, 0.0005813190364278853, 0.00022123524104245007, 0.0007132934406399727, -0.0008726478554308414, 2.5398625439265743e-05, -0.0052187186665833, -0.00546388840302825, 0.0014427374117076397], [0.001460036844946444, -0.0032693480607122183, 0.0014606025069952011, -0.0021057489793747663, 0.0006940464954823256, 0.0004651657654903829, 0.006603395566344261, 0.001162152155302465, -0.0030903008300811052, -0.0014457321958616376, 0.0021336160134524107, 0.001374811981804669, -0.005686481483280659, 0.0014988305047154427, 0.0062452093698084354, -4.431611998621091e-37, -2.3188671293104272e-37, 1.8650668230916555e-37, -0.0027276223991066217, 0.007983551360666752, 0.00276958174072206, -0.00540127931162715, 0.0006761965341866016, 0.002446394180878997, 0.004025009926408529, -0.001958737848326564, -0.004393567331135273], [-0.2764626741409302, -0.07596468925476074, -5.164168834686279, -0.08307783305644989, -0.034120842814445496, 0.3231338858604431, -0.37035730481147766, -0.05383898690342903, 2.3201701641082764, 3.4035398960113525, 0.33591988682746887, 1.4607086181640625, -0.13338066637516022, -0.012663046829402447, 3.7324161529541016, 9.089745015039061e-38, -1.042781969525047e-37, -3.4525761051730745e-37, 0.2727072536945343, -0.03759743645787239, 3.4033851623535156, -3.285576581954956, -0.0483853742480278, 1.0848742723464966, 0.1191326156258583, -0.06854826956987381, 2.883233070373535], [0.0007238286780193448, 0.0028261051047593355, -0.0009608176187612116, 0.0016464736545458436, -0.0006186656537465751, -5.613202301901765e-05, -0.007088806014508009, 0.0015674311434850097, 0.0028051247354596853, 0.00047165752039290965, -0.0021929892245680094, -0.0006817796383984387, 0.005475461483001709, -0.0010368700604885817, -0.005469855386763811, 2.614760156258907e-37, -1.0019887138781487e-37, -3.1372994210350368e-37, 0.0005891644395887852, -0.007529261521995068, -0.004348078742623329, 0.007454307749867439, 0.0012435410171747208, -0.0011318546021357179, -0.0023320289328694344, 0.002335274126380682, 0.00579784857109189], [0.18017128109931946, -0.0401809886097908, -0.13931496441364288, 0.022535189986228943, 0.06566896289587021, 0.04668828099966049, 0.09245520085096359, -0.03946885094046593, -0.03059329465031624, 0.17894256114959717, -0.02432170696556568, -0.04931633919477463, -0.009755048900842667, -0.007158307824283838, 0.08991294354200363, -4.627274966883134e-37, 2.6203424809252684e-37, -6.368250869453338e-37, -0.011770491488277912, -0.08338680118322372, 0.057867590337991714, -0.3678065240383148, -0.17414590716362, -0.00039032287895679474, 0.4097345769405365, 0.08365555107593536, -0.051276445388793945], [0.7519290447235107, -0.5138459205627441, 0.6414387226104736, 0.17229808866977692, 0.20472005009651184, 0.7875615954399109, 0.12852215766906738, -0.07054655253887177, 0.3555757999420166, -0.13395212590694427, 0.1463436484336853, 0.004248279146850109, -0.19171057641506195, -0.14596907794475555, 0.295494943857193, 4.5398393236953685e-37, 1.4329258827685053e-37, 4.276808203085709e-37, -0.24414506554603577, -0.08202303946018219, 0.11482436209917068, 0.9784290194511414, 0.11556839197874069, 0.354369193315506, -0.13657191395759583, -0.28625044226646423, 0.05766706541180611], [-0.002274290192872286, -0.00304733170196414, 0.0009058581199496984, -0.0009212603326886892, 0.0008979661506600678, 0.0003599020710680634, 0.0065557393245399, -0.0014071236364543438, -0.0005926668527536094, -0.0013867642264813185, 0.0020214791875332594, 0.0010554390028119087, -0.004345213528722525, 0.0021582148037850857, 0.005972022656351328, -4.638658442984046e-37, 3.4582001324817343e-37, -2.570568359472451e-37, 0.0005534113734029233, 0.006514559965580702, 0.0014704786008223891, -0.006906544324010611, -0.0027118599973618984, 0.0024824817664921284, -0.000363216211553663, -0.0025467299856245518, -0.00657085794955492], [-0.001328274724073708, 0.005964410956948996, -0.0005485450383275747, 0.0017684302292764187, -0.0012437256518751383, 0.00038264860631898046, -0.003986218012869358, -0.0007318273419514298, 0.0029672649689018726, 0.004348176997154951, -0.0035011109430342913, 0.0001391287223668769, 0.002004059497267008, -0.0055154417641460896, -0.0007540680817328393, 5.420152058773545e-37, -9.168381961221269e-38, -1.4954389283008069e-37, 0.0006470634834840894, -0.003235253971070051, 0.0027862924616783857, 0.006183585152029991, 0.003576460527256131, 0.00044816179433837533, 0.003471837844699621, 0.007918107323348522, -0.003030740423128009], [-0.006297961808741093, 0.003178248181939125, -0.0031931421253830194, 0.0006373831420205534, -0.0006715881754644215, -0.0006480747833848, -8.9774708612822e-05, -0.001387322787195444, 0.0015957746654748917, 0.0031001982279121876, -0.0024766535498201847, -0.0004950072034262121, 0.0015845380257815123, -0.004861596506088972, -0.00183575798291713, 2.3021589432528353e-37, -5.052323094899258e-37, 7.332333450936606e-38, 0.0009640586795285344, -0.0016601354582235217, 0.004471329040825367, 0.0020270152017474174, 0.0016794708790257573, 8.893928315956146e-05, 0.004456320311874151, 0.008318101055920124, -0.004427511710673571], [-0.41520631313323975, -0.1710273176431656, 0.15978151559829712, -1.4246728420257568, -0.12129881232976913, 0.2891765832901001, 0.14131294190883636, -0.5968357920646667, 1.3309123516082764, -0.9606771469116211, -0.010284006595611572, 1.143466591835022, 1.0989667177200317, -0.10415433347225189, 1.8708246946334839, 4.890753045650975e-38, 1.771513335016402e-37, 3.1514693511062893e-37, 0.6051774621009827, -0.06161639466881752, 1.490111231803894, -0.42998263239860535, 0.04802064225077629, 1.1319104433059692, -0.9142003655433655, -0.11307821422815323, 1.9215319156646729], [-0.0005927235470153391, 0.0021437460090965033, -0.000784414354711771, 0.0019209521124139428, -0.0007579721277579665, 0.0002596801205072552, -0.007617516443133354, 0.00206233118660748, 0.003994133323431015, 0.0001269676722586155, -0.002264962298795581, -0.0004202615236863494, 0.006564323790371418, -0.0010271291248500347, -0.005317920818924904, 1.9026415764256926e-38, 4.597951731530304e-37, 1.1784460459075413e-37, -1.4508740605378989e-05, -0.006650129798799753, -0.002922525629401207, 0.007478895131498575, 0.001107755582779646, -0.001187378540635109, -0.0021360672544687986, 0.003114360384643078, 0.004025276284664869], [0.046697866171598434, -0.34892553091049194, -0.1752890646457672, 0.6489374041557312, 0.0328814722597599, -0.1917467713356018, -0.25910684466362, -0.12065692991018295, -0.37076783180236816, -0.6191266179084778, 0.033581335097551346, -0.4505738914012909, 0.830020010471344, 0.5642257332801819, -0.650872528553009, 1.5044600393986215e-37, -5.018058769057342e-37, 2.0769897861104606e-37, -0.334969699382782, 0.04895039647817612, -0.39884182810783386, 0.3652994632720947, 0.0138925239443779, -0.4324868321418762, -0.030557110905647278, 0.09188386797904968, -0.42686766386032104], [-0.025627974420785904, -0.18819917738437653, -0.11801383644342422, 0.38796374201774597, -0.46255895495414734, 0.20456638932228088, -0.25890979170799255, -0.15521375834941864, 0.001379716326482594, -0.42330360412597656, -0.10787860304117203, -0.14002834260463715, 0.7149873375892639, -0.07929647713899612, -0.05756424739956856, 5.375119482908494e-37, -3.4820870024162465e-37, 2.0360086443654656e-37, 0.07449153810739517, -1.1194074153900146, 0.07150028645992279, 0.8117977380752563, -0.0763658881187439, -0.05910748988389969, -0.10148534923791885, 0.05325782671570778, 0.2834293842315674], [-0.0883587896823883, -0.08346550166606903, 0.4153987169265747, 0.7575172185897827, 0.09684059768915176, -0.40825846791267395, 0.23191817104816437, -0.03247635066509247, -0.002877143444493413, 0.04108644649386406, 0.0398755818605423, 0.1948765516281128, -1.0715476274490356, -0.1696845293045044, 0.15589767694473267, 9.496682649598373e-38, -1.7999586849073016e-37, 5.321104695990998e-37, -1.0884203910827637, 0.0525939054787159, -0.1800008863210678, 1.7603321075439453, 0.0901845246553421, 0.024916348978877068, -0.03279837220907211, 0.1013464406132698, -0.20859545469284058], [-0.5861705541610718, 0.15402834117412567, 0.43543946743011475, -0.3957616984844208, -0.12834013998508453, 0.5813615918159485, -0.029294155538082123, 0.028228165581822395, 0.43011829257011414, 0.3358556628227234, -0.15507127344608307, -0.018460378050804138, -1.3518340587615967, -0.23484806716442108, -0.008361445739865303, 3.5894159270190758e-37, 7.0544508086826465e-37, -1.7496841317469044e-37, 1.047034502029419, -0.031116602942347527, -0.35531651973724365, -0.6967169046401978, -0.11380914598703384, 0.23219259083271027, -0.41595879197120667, 0.018489006906747818, 0.18764910101890564], [0.23872525990009308, 0.650058925151825, -0.9811170697212219, -0.31497374176979065, 0.10602807998657227, 0.1431993991136551, 0.3449380695819855, -0.005360045470297337, -0.17127731442451477, 0.3128475844860077, -0.17478591203689575, -0.7798855900764465, -0.3216743469238281, -0.0556456632912159, -0.44388923048973083, 2.090100558750438e-37, -1.3631214889627518e-37, 5.6199018859808216e-37, -0.6299392580986023, -0.14034287631511688, -0.7026604413986206, 0.18412190675735474, 0.14383170008659363, -0.6728004217147827, 0.5964846611022949, 0.29497742652893066, -0.14212511479854584], [-0.21655882894992828, 0.18681535124778748, 0.13201868534088135, -0.00026474270271137357, -0.14298953115940094, 0.12975065410137177, -0.03958328068256378, -0.03700599446892738, 0.13514001667499542, 0.1843208521604538, -0.14649739861488342, 0.10537712275981903, -0.17318545281887054, 0.07861363142728806, 0.06386487931013107, -4.7585338093093e-37, -5.094364290906545e-37, -6.282773905207067e-37, -0.08807315677404404, 0.07845760136842728, -0.05688970535993576, 0.331748902797699, 0.09884143620729446, 0.13970834016799927, -0.26244616508483887, 0.10008858889341354, 0.12645456194877625], [-0.005155786871910095, -0.018998973071575165, 0.0017010701121762395, 0.0017628890927881002, -0.001051606610417366, -0.0007735255057923496, -0.016942456364631653, 0.021474653854966164, -0.0008368483395315707, -0.007203495129942894, 0.0038458595518022776, -0.0009495004778727889, 0.02146814577281475, 0.013484728522598743, -0.008059141226112843, -2.5722398282806975e-37, -1.3564413310274996e-37, -6.121238944472331e-37, -0.019749781116843224, 0.0007761355955153704, -0.003508227877318859, 0.004215163644403219, -0.0009307845612056553, -0.0016981733497232199, 0.003276335308328271, -0.0033128359355032444, 0.002843483816832304], [0.4314955770969391, 0.07549794763326645, -0.7446334958076477, -1.9030579328536987, -0.21095527708530426, 0.3472098708152771, 0.4032306671142578, 0.09214700013399124, 0.09919647127389908, -0.4775552451610565, -0.07443743944168091, -0.5548973083496094, 0.35028281807899475, -0.038411933928728104, -0.45925137400627136, 1.3828318168503132e-37, 3.4311714392863286e-37, -1.4131944793520405e-37, -0.3488917052745819, -0.10069701820611954, -0.08310791105031967, -0.26220157742500305, 0.026643268764019012, -0.4168458580970764, 0.1875496208667755, -0.30304577946662903, -0.23677818477153778], [-0.21272559463977814, 0.09316334128379822, 0.43104204535484314, -1.63905930519104, -0.19645027816295624, 0.1180422231554985, 0.0795314610004425, 0.23163364827632904, -0.4562617540359497, -0.1342722475528717, 0.00010300704161636531, 0.12107764929533005, 0.6569899916648865, 0.30562493205070496, 0.17414994537830353, -4.669274908663632e-37, -2.7467148274505176e-38, -3.034440750637281e-37, -0.14194461703300476, -0.14206784963607788, -0.3978588581085205, 0.1402648538351059, -0.0867900550365448, 0.3540152609348297, 0.3466581702232361, -0.11058850586414337, -0.24349366128444672], [-0.1128946989774704, -0.288053423166275, -0.010188424959778786, 0.035281289368867874, 0.1592935174703598, 0.5892968773841858, 0.09709377586841583, -0.04252294823527336, 0.2547021806240082, 0.21198882162570953, 0.02995065413415432, -0.10151202231645584, -0.6951797604560852, -0.05782623961567879, 0.1229998841881752, 1.7044690507698598e-37, -1.928804603481777e-37, 3.3193588080131685e-38, 0.14563529193401337, 0.09142196178436279, 0.006295737344771624, 0.36712583899497986, 0.11819717288017273, 0.16858182847499847, -0.23180711269378662, 0.050985291600227356, -0.12249214202165604], [-0.19044989347457886, 0.010700572282075882, 0.08161259442567825, 0.037190262228250504, 0.049585774540901184, 0.12734179198741913, 0.002469578292220831, -0.006425763480365276, 0.07058284431695938, 0.03156070411205292, 0.03437429293990135, -0.0014577331021428108, -0.18040302395820618, -0.018334034830331802, -0.07313057035207748, -1.5792147162113875e-37, 5.969040443041821e-37, 2.4793566092869e-37, -0.07711432874202728, 0.05213085189461708, -0.05641612038016319, 0.33713874220848083, 0.22461146116256714, 0.013521367684006691, -0.3624749481678009, 0.0839041918516159, 0.035723794251680374], [0.7634255290031433, -0.740587592124939, -0.2533004879951477, -0.11816243082284927, 0.1240735873579979, -0.6273016929626465, -0.311219722032547, -0.10979579389095306, -0.3692196309566498, -0.3884323537349701, -0.030674751847982407, -0.02547190897166729, 0.6670476198196411, 0.12447576224803925, -0.21682049334049225, 1.5806754297305997e-37, 2.4256723045992305e-38, 2.281363674042255e-37, 0.11187717318534851, -0.2286033034324646, 0.04283296689391136, -0.2292799949645996, -0.1181865781545639, -0.2948322594165802, 0.21192748844623566, -0.03826414421200752, -0.236453115940094], [0.19392354786396027, 2.315720558166504, -0.21211683750152588, -0.7142890691757202, 0.02302400954067707, -0.26615551114082336, -0.36756432056427, 0.5338071584701538, -0.45261645317077637, -0.43269890546798706, -0.01686137355864048, -0.5906129479408264, -0.5460268259048462, 0.273992121219635, -0.3128727972507477, 1.3114328574960351e-37, -1.5424572001417446e-37, 2.8943198725149708e-37, 0.7025960683822632, 0.2138313353061676, 0.28210780024528503, -0.8557125926017761, -0.021271521225571632, -0.6930336356163025, 0.04499204456806183, 0.050648320466279984, -0.8214974403381348], [-0.2578575313091278, 0.08558926731348038, 0.17612560093402863, -0.2812785804271698, -0.2602797746658325, -0.03263925015926361, -0.23113086819648743, 0.05477481707930565, 0.1336459070444107, 0.3033447265625, -0.20161014795303345, 0.19608382880687714, -0.17920899391174316, 0.27395203709602356, 0.16007034480571747, -3.1992213428231475e-37, 1.3443476768648679e-37, 2.204780582993238e-37, -0.11016610264778137, -0.3993450105190277, -0.11331485211849213, 0.583236813545227, -0.11352114379405975, 0.1210525631904602, -0.29474884271621704, -0.4058299958705902, 0.20344412326812744], [0.007912973873317242, 0.027051033452153206, -0.0024014886002987623, -0.0029537035152316093, -0.0025730044580996037, 0.0013545737601816654, 0.013752797618508339, -0.01965426839888096, 0.005011399742215872, 0.010030589066445827, -0.006881165783852339, 0.0022622167598456144, -0.014582031406462193, -0.019040048122406006, 0.008838355541229248, -3.036041145587417e-37, 5.062661762865169e-37, 5.15473178033415e-37, 0.005450679920613766, -0.00022681622067466378, 0.000616012723185122, -0.005453648045659065, 0.0032085112761706114, 0.003155048470944166, 0.012635518796741962, 0.006440385710448027, -0.009889836423099041], [-0.08345924317836761, -0.06625612080097198, -0.026261482387781143, -0.21177706122398376, 0.04201149940490723, 0.36040785908699036, -0.055651962757110596, 0.11619340628385544, 0.1503809094429016, 0.4783901274204254, -0.04280060529708862, -0.3615337312221527, -0.17440272867679596, -0.07032935321331024, -0.3255351781845093, -2.701119602226071e-37, -3.396019699152925e-37, 2.2719994129764966e-37, 0.1689341962337494, 0.10015761852264404, 0.13983950018882751, -0.8818137645721436, -1.8205467462539673, -0.24154910445213318, 0.09778276830911636, 0.08633852005004883, 0.07966800034046173], [-0.3975423574447632, 0.5160980224609375, -0.21415646374225616, -0.23303675651550293, 0.15952876210212708, -0.5500180721282959, 0.16841107606887817, -0.2589532136917114, -0.41542714834213257, -0.1685042381286621, -0.08488594740629196, -0.07132921367883682, 0.6958889365196228, -0.18986839056015015, -0.2437838762998581, -4.182846320586012e-37, -6.6820336573245286e-37, 3.044822914907525e-37, -0.07302010804414749, -0.014574820175766945, 0.04329126328229904, -0.68534255027771, -0.08266694843769073, -0.3238239288330078, 0.03639787435531616, 0.24513156712055206, -0.17960232496261597], [0.19389091432094574, 0.16093496978282928, -2.7022056579589844, -0.8938964009284973, -0.06183667108416557, -1.0070723295211792, 0.23276440799236298, 0.1259504109621048, -0.43865302205085754, 1.3414982557296753, 0.02877943590283394, -2.2104556560516357, -0.9464125633239746, -0.20827344059944153, -0.5713463425636292, 2.864008105173468e-37, 2.1591453366846503e-37, 2.077729671699624e-37, -0.5958898663520813, -0.16181790828704834, -0.058151163160800934, -1.8823026418685913, -0.017278514802455902, -2.7936699390411377, 1.1344244480133057, -0.11902681738138199, -1.180409550666809], [-0.23695522546768188, 0.07963157445192337, -0.33861079812049866, 1.3474608659744263, 0.15394574403762817, 0.5033820271492004, -0.9105020761489868, -0.40088677406311035, -0.6626465916633606, 2.1603033542633057, 0.14956341683864594, -0.43176665902137756, -0.3393441140651703, -0.009792827069759369, -0.13230706751346588, -2.2593426610389605e-38, 5.0722609936574255e-37, 1.565356659126355e-37, 0.18140056729316711, 0.016315951943397522, -0.5179802775382996, -0.3561770021915436, -0.005627838429063559, -0.273043155670166, 0.12997055053710938, -0.1108141764998436, -0.6399273872375488], [-0.9762397408485413, -0.08409011363983154, -0.370012104511261, -0.651885449886322, 0.018229950219392776, -0.6603761315345764, 0.1985253393650055, 0.046991150826215744, -0.5909683704376221, 0.15268780291080475, 0.02000497281551361, -0.13696232438087463, 0.5324111580848694, 0.0632961168885231, -0.3156411647796631, -1.8529418919473e-37, 3.795455230149751e-37, 5.104322254105669e-37, -0.34887486696243286, 0.10785037279129028, 0.24776668846607208, -1.5321191549301147, -0.0238936934620142, -0.48591095209121704, -0.22129230201244354, -0.08118930459022522, -0.03738554194569588], [-0.05802880600094795, -0.05703364685177803, -0.8777605891227722, 0.08034136146306992, 0.024660389870405197, 0.3412575125694275, -0.1206057146191597, -0.09477648138999939, 0.05368209630250931, -0.5937211513519287, -0.07429788261651993, -0.0836198553442955, -0.05512112006545067, -0.017068935558199883, 0.41704413294792175, 1.482718613464929e-37, 5.168800368500462e-37, -4.892902637495249e-38, 0.40014493465423584, -0.020695127546787262, 0.20377938449382782, -0.7835804224014282, -0.008248146623373032, 0.10866117477416992, -0.3088674247264862, -0.09831371903419495, 0.8389194011688232], [0.07256462424993515, 0.004028479568660259, 0.9051835536956787, -0.6712806820869446, -0.1360957771539688, 0.07334672659635544, -0.8804660439491272, -0.39337772130966187, -0.19098436832427979, -0.08675406128168106, 0.12110401690006256, -0.8081418871879578, 1.653220772743225, 0.27883219718933105, 0.7913523316383362, -1.9213539555989005e-37, -7.462509594117296e-38, 3.843313272134389e-40, -0.21893256902694702, 0.10811447352170944, -0.6045679450035095, -2.1871137619018555, -0.08802348375320435, -0.9230037331581116, -0.019417058676481247, -0.044944025576114655, -1.026965618133545], [-0.0071647935546934605, 0.11252494901418686, -0.516399085521698, -0.13268855214118958, -0.043718088418245316, 0.4487987458705902, -0.2897174060344696, -0.06809154152870178, -0.13578584790229797, 2.1094632148742676, 0.20579306781291962, -0.7092226147651672, 0.05501067265868187, 0.045506954193115234, 0.11018021404743195, 3.2386727150606084e-37, 4.917362134034223e-37, -1.938103395883282e-37, -1.1443588733673096, -0.34765511751174927, -0.49440494179725647, -2.524078607559204, -0.11359992623329163, -0.4422871470451355, 1.7110329866409302, 0.18129108846187592, 0.017659518867731094], [0.37319791316986084, 0.14609704911708832, 0.4902065396308899, -0.4621817171573639, 0.0033294660970568657, -0.3603888750076294, 0.6788498163223267, 0.2540571093559265, -0.5964799523353577, -4.1057610511779785, -0.2313511073589325, 0.22293096780776978, 0.7189857959747314, 0.19193410873413086, -0.017238905653357506, -5.354041711927506e-37, -2.619418296562077e-37, 2.1333206391297925e-37, -0.829684853553772, -0.12575523555278778, -0.08220753073692322, 4.186529159545898, 0.15864495933055878, -0.09865491092205048, -0.5033510327339172, -0.15902818739414215, -0.3107272684574127], [-0.06539441645145416, 0.08475884050130844, 0.2914496064186096, 0.8878781199455261, 0.03376230224967003, -0.711196780204773, -0.12191217392683029, 0.019515162333846092, -0.4175255596637726, -0.030923588201403618, 0.041158679872751236, -0.5960153937339783, -0.21107442677021027, -0.11420638114213943, 1.2997695207595825, 3.551863818668222e-37, -2.9698846119439937e-37, -4.516445038197036e-37, -0.39701732993125916, -0.08248483389616013, 0.53459233045578, 3.686607837677002, 0.05899509787559509, -1.081709384918213, -0.6605302095413208, -0.13120658695697784, -0.7601844668388367], [-0.07628551125526428, 0.11277726292610168, 0.07371892035007477, -0.1006656289100647, -0.10388295352458954, -0.034093230962753296, -0.08027396351099014, 0.04967285320162773, 0.008164512924849987, -0.01757451891899109, -0.06029414385557175, 0.02991347387433052, -0.03965773805975914, 0.009219633415341377, -0.09452906250953674, -1.8117008934150806e-37, -2.629553383887091e-38, 2.5877422250357073e-37, -0.055893003940582275, 0.0009535112767480314, -0.07088235765695572, 0.2888716161251068, 0.13687773048877716, -0.04202282056212425, -0.3065814971923828, 0.05727853626012802, 0.03800283744931221], [0.2301310896873474, 0.05279328301548958, -0.13685643672943115, 0.33782246708869934, 0.20405538380146027, 0.2845973074436188, 0.19788429141044617, -0.04182815179228783, 0.09736153483390808, 0.043100226670503616, -0.10961425304412842, -0.03711988404393196, -0.11390486359596252, -0.08674199879169464, 0.165963813662529, -5.535649544488493e-37, -5.78289912968905e-37, -4.435384069879299e-37, 0.10494044423103333, 0.37704941630363464, 0.15720832347869873, -0.41825613379478455, -0.1854063719511032, 0.17218655347824097, 0.38992640376091003, 0.4103642702102661, -0.008892829529941082], [-0.05913076549768448, -0.024986784905195236, 0.0018210235284641385, 0.050110362470149994, 0.049716584384441376, 0.053332116454839706, 0.006718832068145275, -0.017945442348718643, 0.021040160208940506, 0.10893076658248901, -0.005490343552082777, -0.006977762561291456, -0.07971679419279099, -0.04715680703520775, -0.008478913456201553, 5.298641769503994e-37, -1.1830366996766694e-38, 2.7778412536672405e-37, -0.08731350302696228, -0.003963019233196974, -0.03514103963971138, 0.09030618518590927, 0.09144371747970581, 0.017837366089224815, -0.12093985825777054, 0.033193737268447876, 0.00017196543922182173], [0.05161741375923157, 0.06680333614349365, -0.1348360925912857, -0.051299259066581726, -0.029995258897542953, -0.13528168201446533, -0.04655323550105095, -0.06693480163812637, -0.09262643754482269, -0.059772901237010956, -0.05507710576057434, 0.007861303165555, -0.3484641909599304, 0.3211536109447479, 0.09257692843675613, -5.860007763714127e-37, -3.104480562585041e-37, -1.428647550401106e-37, -0.18950550258159637, -0.3739931881427765, 0.10908272117376328, -0.6180487871170044, -0.26093748211860657, -0.06121312081813812, -0.015714114531874657, 0.017125148326158524, 0.10831332206726074], [0.25695687532424927, -0.12722371518611908, -0.25676941871643066, 0.43786191940307617, 0.18771585822105408, 0.22968481481075287, 0.36545705795288086, -0.004139645025134087, 0.409249871969223, -0.2454463243484497, 0.019298255443572998, 0.17011559009552002, 0.7836599349975586, 0.23647622764110565, 0.25506794452667236, 4.180240578065631e-37, 1.470694687913882e-38, -4.062126587858095e-37, 1.145825982093811, 0.10475709289312363, 0.92003333568573, 1.2276978492736816, 0.003227546811103821, 0.12451140582561493, 0.281473308801651, 0.28155282139778137, 0.6235671639442444], [0.26327255368232727, 0.2234533578157425, 3.2987470626831055, -0.5365743637084961, 0.0023230300284922123, -0.768135130405426, 0.18134766817092896, 0.11764054000377655, -2.0272867679595947, 1.5630947351455688, -0.08194831758737564, -0.3898189663887024, -1.0908637046813965, -0.19640491902828217, -3.0501198768615723, -2.242524276870134e-38, -1.6708549274153904e-37, 3.8531234824234345e-38, -0.9280458688735962, -0.12046492844820023, -4.390485763549805, -1.8421616554260254, 0.016346678137779236, -0.19695474207401276, 1.7816187143325806, 0.1085231825709343, -5.096608638763428], [0.009719636291265488, 0.022920256480574608, -0.0007919309427961707, -0.004572954494506121, -0.0027023865841329098, 0.0015717141795903444, 0.010012475773692131, -0.024092473089694977, 0.004689691588282585, 0.006872827187180519, -0.004796080756932497, 0.0021973419934511185, -0.01253196969628334, -0.021904300898313522, 0.01108477171510458, 2.1574464024265029e-38, -3.0828382364787456e-37, 5.786313365371408e-38, 0.006032230798155069, -0.0029728319495916367, -0.0014522294513881207, -0.004238042049109936, 0.004373835865408182, 0.003260144032537937, 0.0059897867031395435, 0.004891294054687023, -0.01009129174053669], [-0.8854002952575684, -0.14762744307518005, -0.1200493723154068, -0.4175419807434082, -0.09861364960670471, -0.9433724284172058, -0.1394265741109848, -0.07828690111637115, 0.1941630095243454, 1.977874994277954, 0.18885453045368195, 0.5391238927841187, 0.0950138196349144, 0.06534915417432785, 0.3048160672187805, -1.5822380456741376e-38, 1.6781266575103419e-37, -7.854332262921015e-38, 0.3019111156463623, -0.018635520711541176, 0.06656001508235931, -2.4160983562469482, -0.11186203360557556, -0.09053317457437515, 0.4118279814720154, 0.12474963068962097, 0.4639997184276581], [-0.0009593582944944501, -0.004855023231357336, 0.0019342702580615878, -0.0013318989658728242, 0.0009596232557669282, 0.0010023058857768774, 0.005566940177232027, 0.002441937569528818, -0.0013481930363923311, -0.0020106073934584856, 0.001961948350071907, 0.0017557638930156827, -0.004548358265310526, 0.0007224649889394641, 0.006540118716657162, -1.3502994959103025e-37, 1.82130236628488e-38, 9.816010543648713e-38, -0.002942959778010845, 0.00891543086618185, 0.005723087582737207, -0.004387355409562588, 0.0005727257812395692, 0.0033514839597046375, 0.002736074151471257, -0.0006558600580319762, -0.008601932786405087], [-0.0043740649707615376, -0.009115589782595634, 0.0018258641939610243, 0.004148842301219702, -0.0006896870327182114, -0.00013415366993285716, -0.01243178267031908, 0.02253919281065464, 0.0003950972168240696, -0.002986191539093852, 0.0008414814947172999, -6.457221024902537e-05, 0.01076467800885439, 0.01811341755092144, -0.00964026153087616, 4.432681469609064e-37, 3.5884590083237577e-37, 7.049481019601011e-37, -0.014393669553101063, 0.0040794964879751205, -0.0011971849016845226, -6.91101886332035e-05, -0.002491231542080641, -0.00028029573149979115, 0.011134580709040165, -0.007880281656980515, 0.003627764992415905], [-0.6054648756980896, -0.3292173147201538, 0.31293848156929016, 4.564495086669922, 0.3066742420196533, -1.3828368186950684, -2.032287120819092, -0.5840741395950317, 0.4213886260986328, 4.4998250007629395, 0.2799449861049652, -0.2859523594379425, -1.0274791717529297, -0.17161133885383606, 0.5471448302268982, 2.0888393901325455e-37, -7.2747658679446e-38, 4.1220761540316995e-37, -0.011951014399528503, -0.009286587126553059, 0.370167076587677, -0.4258096516132355, 0.00922571960836649, -0.18802614510059357, -0.07510355859994888, -0.058813270181417465, 0.079497329890728], [0.11223627626895905, 0.1471453756093979, -0.5639515519142151, -0.5294867157936096, -0.06419503688812256, 0.5367695093154907, -0.8735414743423462, -0.45009127259254456, 0.16981789469718933, 0.14248651266098022, -0.17003053426742554, 0.24290896952152252, 2.0764036178588867, 0.25367310643196106, -0.12351589649915695, -4.466224743313177e-37, 9.72624672714038e-38, 3.951923992468506e-37, -0.04497237130999565, -0.16218151152133942, 1.2511372566223145, -1.23186457157135, 0.04938284307718277, 0.5328454375267029, -0.6656774878501892, 0.10154258459806442, 0.5774526000022888], [-0.08922263234853745, 0.009517532773315907, 0.08726676553487778, -0.0031914133578538895, -0.033579520881175995, 0.020345203578472137, -0.0669955387711525, 0.027405092492699623, 0.046318162232637405, -0.007513875607401133, 0.028115900233387947, 0.03807838261127472, 0.061929840594530106, -0.02417873777449131, -0.05367501080036163, -1.0475515410821002e-37, -1.8431079156363e-37, 1.3421513377038237e-37, 0.08297364413738251, 0.08207371085882187, -0.08183179795742035, 0.3528668284416199, 0.15297652781009674, 0.043991729617118835, -0.16988308727741241, -0.02945222146809101, 0.030082689598202705], [0.7355697751045227, 0.21430394053459167, -0.11757060140371323, -0.3791893422603607, 0.07204052060842514, -0.2841107249259949, -0.26211798191070557, -0.19680941104888916, -0.11034458130598068, -0.08490301668643951, -0.10541156679391861, 0.04771699011325836, -0.6292948126792908, 0.561972439289093, 0.09479329735040665, -1.4220912672501001e-37, 1.7116573755802147e-37, -3.3825663370643894e-39, -0.07545021176338196, -0.5222256779670715, 0.08001021295785904, -0.6493593454360962, -0.2879055142402649, -0.044736672192811966, 0.24031777679920197, 0.12196611613035202, 0.17276537418365479], [-0.3600556254386902, -0.0613074004650116, -3.1968390941619873, 0.5161924958229065, 0.019639695063233376, 0.3411591351032257, -0.0021908606868237257, -0.10833307355642319, 0.012577887624502182, -1.9690401554107666, -0.16989347338676453, -1.0132309198379517, 0.8560037016868591, 0.09369200468063354, 0.7200644612312317, 3.612318300704492e-37, -3.7177676917030917e-37, -1.4496634400419095e-37, 0.23750931024551392, 0.200236976146698, 0.8777344822883606, 1.8985146284103394, -0.014674165286123753, -0.8091483116149902, -0.5468022227287292, 0.021679162979125977, 1.5721964836120605], [0.8891831636428833, 0.39393043518066406, 1.1894617080688477, -5.369750499725342, -0.3766081631183624, -0.25727182626724243, 1.7499624490737915, 0.5031420588493347, 0.18575751781463623, -3.1882596015930176, -0.1862512230873108, 0.056128233671188354, 0.715162992477417, 0.0786726102232933, 0.9641085267066956, -4.000253767568174e-37, -2.95362192669418e-37, 1.3836147503283008e-37, 0.11359313130378723, 0.12379413098096848, 0.3189677596092224, -0.5491636395454407, -0.06275235116481781, -0.1066342443227768, 0.41993850469589233, 0.0602506659924984, -0.21044734120368958], [0.0024051829241216183, -0.001450314186513424, 0.002076251432299614, -0.0003725101996678859, 0.0012901233276352286, 5.521667844732292e-05, 0.0061036660335958, -0.0031678653322160244, -0.004201846197247505, 9.841364226303995e-05, 0.0015758608933538198, 0.00015138935123104602, -0.008450772613286972, 0.0021325815469026566, 0.0038575532380491495, -4.5280566456879397e-38, -4.6535117582903805e-37, 1.0463213131343001e-37, 0.0049005793407559395, 0.0029864171519875526, 0.004486577585339546, -0.00487254885956645, -0.0011744045186787844, -0.00014052787446416914, -0.0037279659882187843, -0.005962107330560684, -0.0009420898277312517], [-0.12640684843063354, -0.15045739710330963, -3.164973735809326, -0.2687727212905884, -0.00217630947008729, -0.002507738769054413, -0.17011140286922455, 0.098345547914505, 0.21518570184707642, 0.10261430591344833, 0.1836320459842682, 1.3644393682479858, 0.3280297517776489, 0.14813825488090515, -0.25046437978744507, -5.228986137543213e-38, 6.623598390323412e-37, 6.0006286251285085e-37, 0.19333916902542114, 0.01091382373124361, 2.206897497177124, 0.9091856479644775, -0.020047442987561226, 1.4213474988937378, -0.9066992402076721, -0.07190148532390594, 2.96921443939209], [-0.3407899737358093, -0.06852969527244568, -0.3710438013076782, -0.32191866636276245, 1.0739233493804932, 2.0383595256134868e-05, 0.256540983915329, 0.09065524488687515, -0.24733887612819672, -0.08304300159215927, -0.17181871831417084, -0.5567640066146851, 0.11943609267473221, 0.491548091173172, -0.34256869554519653, 4.403336710311822e-37, -6.498130834190608e-37, -3.0341564552048386e-37, -0.2945817708969116, 0.1900985687971115, -0.5172246694564819, 0.19737087190151215, -0.013873707503080368, -0.6531559824943542, -0.19465796649456024, -0.011489754542708397, -0.4864455759525299], [0.002945756772533059, 0.0005506734596565366, 0.001284253317862749, -0.0008724978542886674, 0.0010894257575273514, 6.236584886210039e-05, 0.006834975443780422, -0.002257412765175104, -0.003728769952431321, 0.0006612379220314324, 0.0014433397445827723, 0.00034023364423774183, -0.00762778427451849, 0.00046703548287041485, 0.002557629020884633, -2.489822627257249e-38, 3.922546498839137e-37, 4.304573642961718e-38, 0.001770307426340878, 0.0036578543949872255, 0.00160809769295156, -0.004894594196230173, -0.0002507378230802715, 0.00022362494200933725, 0.0005689392564818263, -0.00459716934710741, 0.0003482027677819133], [-0.0018198215402662754, 0.0005203057080507278, -0.0004206869634799659, 0.002046840265393257, -0.000993995345197618, 9.459510329179466e-05, -0.008342452347278595, 0.0027116267010569572, 0.0033563163597136736, 0.0004951366572640836, -0.002234239364042878, -0.0006267152493819594, 0.007570570334792137, -0.0014240432064980268, -0.004776880610734224, -2.070913531761394e-37, 4.606396740803466e-37, 1.3743267198990016e-37, 1.566756509419065e-06, -0.005641899071633816, 0.002107810927554965, 0.0073433732613921165, 0.0013871360570192337, -0.0007588043808937073, -0.002138859825208783, 0.004398464225232601, -0.00014543186989612877], [-0.03241652995347977, -0.06625739485025406, 0.0034104366786777973, -0.13187275826931, -0.1427687108516693, 0.004154183901846409, -0.0413844957947731, -0.04397382214665413, 0.23588301241397858, 1.3948321342468262, -0.08087476342916489, 0.07396140694618225, 0.04861181974411011, -0.08787189424037933, -0.1406467705965042, 2.5812020848430105e-37, 3.2339816162175575e-37, -3.601489963003207e-37, -0.6822426319122314, -0.036949507892131805, 0.19351425766944885, -0.43804147839546204, -0.00298856059089303, 0.15006831288337708, 1.1008280515670776, 1.216753602027893, 0.057987675070762634], [-0.6456338763237, 2.5414977073669434, 0.21848376095294952, 1.059666633605957, 0.1942703127861023, -0.383437842130661, 0.030097121372818947, 0.6358628869056702, 0.15317311882972717, -0.5603238344192505, 0.009976843371987343, 0.09642761200666428, -0.20170116424560547, 0.031229998916387558, -0.44329148530960083, 5.737782251708385e-37, -5.894962649439263e-37, 3.6314452400153857e-37, 0.15075001120567322, -0.011233920231461525, -0.7927957773208618, 0.7341703176498413, 0.08537415415048599, 0.059999436140060425, -0.5099325180053711, 0.13567981123924255, -0.40316739678382874], [-0.4814237952232361, -0.30657294392585754, 0.6717100143432617, 0.6912809014320374, 0.16204023361206055, 0.6788190603256226, 0.7178965210914612, 0.2018287181854248, 0.5362101197242737, -0.5724396705627441, 0.18971595168113708, 0.2637753486633301, 0.10218437016010284, -0.11478085070848465, 0.5102064609527588, 3.104275636697618e-37, 2.3453379936131545e-37, -5.462353339117397e-38, -1.2743438482284546, -0.545562207698822, 1.346993327140808, 0.44369572401046753, 0.2004299908876419, 0.2817748785018921, 0.2781955599784851, 0.23594900965690613, -0.8185233473777771], [-0.1573350578546524, -0.287555456161499, -0.034933872520923615, -0.042879629880189896, 0.2845993638038635, 0.46347281336784363, 0.09764306247234344, -0.0072753592394292355, 0.1802535206079483, 0.17564815282821655, 0.011029801331460476, -0.06445018202066422, -0.6826051473617554, -0.08772112429141998, 0.11581847816705704, 5.08593632142271e-37, -6.614222918869939e-37, -6.822903389346174e-37, -0.031152835115790367, 0.09526366740465164, -0.057800691574811935, 0.23103372752666473, 0.03869331255555153, 0.1847374588251114, -0.3953867554664612, 0.11900031566619873, 0.015382705256342888], [-0.005133848637342453, 0.004339249338954687, -0.002558310516178608, 0.001140887150540948, -0.0013935384340584278, -8.142888691509143e-05, -0.0033525461331009865, 0.0005555054522119462, 0.003601765027269721, 0.0031509357504546642, -0.0029758962336927652, 0.00022408386575989425, 0.0046928646042943, -0.005185880232602358, 